<unk>	0.13526995583530815	0.45369852626347074	0.23321687497447582	0.2118500779609664	-0.19939386114092744	0.039009364633715626	-0.10290265925764625	0.0996235305262563	-0.18793771522809952	0.12850858467884518	-0.07165803132045828	0.4289086199390098	0.34472720722523253	-0.29585172601458587	-0.20244164157167888
the	-0.09068002121054475	-0.2370687208945843	-0.8404556455057393	-0.1475621191037172	0.2666560071856767	0.366229601479221	0.4110736635890838	-0.9753353355979356	-0.16538914833981672	-0.7520990787492131	-0.46295065392652757	-0.04024670154762531	0.20632390808935686	0.0015789454696252536	0.7935545608891885
rock	-0.016780666525925914	-1.9541016722890656	-1.63393238512925	-1.4654080832072256	-0.2657630446258135	1.625699163490218	-0.2020532752899874	-0.28038652563945243	0.33145838613132295	-0.24152576267433212	-0.06768120752548201	-0.05610472698709762	0.10615121313926867	-0.198218437545546	1.5497653333688617
is	-0.5899842827255872	-0.28332313363364453	-0.32210174724760854	-1.0380597792519284	0.10026999776920564	-0.3910825429640381	-0.6778106554450818	-0.09854250275318921	-0.4993341575911885	-0.659150959256024	0.8602115101439503	-0.8372197550314929	-1.0492560088260527	-0.7150490635901866	0.44350215499020773
to	0.3208272353852574	0.27855152812531453	0.9839654698988918	-0.885302474766571	-0.4184832508033568	-0.496159142100033	0.932204911788947	-0.9297983320145077	-0.20888131518816572	-0.08744867344363116	1.3934935886698707	1.1427087854202642	-0.2618541879190064	-0.10050861915103798	0.9484048155898133
be	-0.16021567195940334	0.05401746834526805	1.3627733299248137	-0.8480466075096746	-1.4307503223528462	0.5846615642861983	0.3318704063834027	0.32219431558499084	-0.20478371692507982	0.3977898689485501	1.7264483899936702	1.6562327571187694	0.48502506973073056	-0.3576068046118801	1.5250218770709651
21st	2.178380643527018	-2.3847056170190064	-0.6696401197955125	0.719041912287248	0.9801016420086982	1.7055811878826295	1.0777086249279146	-1.9908873218817786	0.043359149522424145	1.2324314458013206	-0.03148955614405602	1.822849556015551	1.2725527116491837	1.474349482149651	2.752810523955975
century	1.6465081571579252	-2.15349407847062	-0.6446955061965407	0.8664969701738348	0.2842530370750351	1.7906187940888005	0.29963646946175065	-1.218613555517681	-0.5418959376080508	1.4626897184811538	0.17735368528789452	0.21934489867358578	0.25499397460782264	0.7619403935753846	2.912716672352108
's	-1.1895185561738277	0.3882612261092569	-0.06403103609516136	-0.6703785314069003	-0.35537888116160443	-0.7175142636442571	0.43041424754370083	-0.7775534644184923	0.8483637507671227	-0.4503074627638936	0.24294450186710903	-0.28047778637601933	-1.8639326309915767	-0.0020574949273946264	0.5677993160176433
new	1.3559174932283644	0.05897067695389224	-0.9057795983301972	0.6494432256938126	0.09310435349178463	0.17686880992470042	0.6506593540588499	-0.8564088957750522	0.09101705171683516	0.8765323973933002	-0.05018517593260052	0.46092652833016795	-0.13175476613356663	-0.6375906341594912	1.8274592486804766
``	0.3221394421173856	0.31350595851419755	-2.2678599755626854	1.4431348220752982	-0.5549195063121107	-0.10004698156664127	-0.001231319703460125	1.8650201981608356	0.5884441926980775	-1.3258334591944805	1.1640720602685157	-0.4133936008984144	-0.894421683416966	-0.599664228776899	1.3445267710955604
''	-0.9174621287859628	0.2724564578412014	-1.6077409792785455	1.3086709879553229	-0.2408207302105921	0.607489675411693	-0.4776268186827939	1.6896254840338083	0.46016114752599285	-1.5446372199225757	0.8211603946310588	0.34948643161241333	-1.2741199454126488	-0.028937139051966043	1.7468116956933566
and	0.13376884711903864	-0.4523167565535209	-0.5084915832906373	-0.09214481201227798	0.1810505380831921	-0.5191654023824718	0.2042937927694857	-0.580746984168224	-1.0927031808862617	-0.24492253171042125	0.3761560879098249	-0.9263446613418609	0.6742393344409966	-0.32585631816036115	-0.48652673149720704
that	-0.13553998268226708	-0.3441704799656287	-0.566678330189641	0.20198412296690382	-1.224908109159645	-0.1127518258970042	-0.02496445853700016	0.378198747182135	-0.2895286473870141	-0.5803492978560338	0.85134218804992	0.23027485446939439	-0.29805468333293816	-0.447709944889787	1.2592210052146
he	-0.34908759807437867	0.36015738021591825	0.0008138463040451294	0.23787574561224412	-1.3428951640306825	-0.6200479819225633	0.28430314003460977	0.14068979254151548	0.6342026791096298	-0.07387789574888132	1.5267851220530755	-0.4800768645714772	-1.0580208464065315	-0.133123383101004	0.43743163440652133
going	-0.24875289123679345	0.6211891048505038	-0.2932423872425898	-0.15818941343898488	-1.2652619600614625	-0.40409894508181476	1.5549372858070971	0.18845055578727976	0.9253174748260053	0.12043946368659009	0.5466680141638365	1.045801450721326	-0.6636387152073608	0.7748820855622649	0.2707349555267069
make	-0.24386210127770874	0.14796346437602412	0.6606845281159914	-0.8586804107441958	0.37599009732414407	1.0344969615421462	0.6431757645279153	-0.1142682909462357	-0.5347676089813445	0.6030780288938604	1.7020717032631771	0.9583490248763855	0.36577318151796256	0.6098175461780598	0.9813440978853993
a	1.2828578196313536	-0.20660060611085818	-0.33952619416500746	-0.502141699839755	-0.3236700825597362	-1.0316120800382926	-0.8527102657205055	-0.9605601691372672	0.1988771641903259	-0.8404619649297168	0.005700084763837987	0.5919830493730281	-0.46057548843649376	0.09070023441561054	0.3951364587811628
even	-1.7867602605927655	0.4283242251153185	-0.49667662325838546	-0.3518707835578828	-0.4264854110273033	-0.3769105974949175	0.5458658315047722	0.41567477465987857	-0.7306422255001017	0.23892069246302328	1.0790264652253192	0.2909056968149016	-0.025586551964726034	-0.18012524852215736	-0.9268538931772548
than	-0.0466896345049147	1.1658356794609193	-1.0432432566052843	0.06834977819205185	0.11442892329360971	-0.29959624260900913	-1.2978600524027213	0.7401442186173062	-1.0242986147526842	0.5333225620477858	0.7356445246567029	1.0625399592381004	-0.3252381529327407	0.5646515926557718	-0.412305270386202
arnold	0.7042122587820073	0.7002224473619341	-1.8799488678780034	-1.1592877406586388	-0.7876281352898912	0.8824446597963631	-0.9176986626456998	1.8981160784370825	-2.3994403118963508	-0.7223382891305334	1.6198723048444497	-2.029084381245337	-1.4687178183482144	-1.5634763200880253	1.7404935346782138
schwarzenegger	0.12445874849016247	-0.008597042072774674	-0.5984432618878929	-0.9525616767948317	0.14051920017360092	0.2718640941351975	-1.6459140880480683	2.920358766096732	-1.6454070535596763	-1.1010646149208339	0.8702162810203653	-2.2173816968898183	-2.0223780128044524	1.3195048109527336	1.6312050198860404
,	-0.0918145358233815	-0.5428332166748656	-0.5291103398952841	-0.2779498275497611	0.3232232312564408	-0.11892751676653718	0.36006495182897846	-0.5145305831654114	-0.11601016820120297	0.1567096566201942	0.11240088037583318	-0.34554197049038016	-0.5626089100001237	-0.3566660762971179	-1.0562842944428503
van	-1.3652891038138764	0.4273899701270698	-0.6024319088213437	-0.9887981359042807	-0.9293744664943153	-2.665811017962229	-0.027533569976993078	0.29548637912388387	0.24819913691826878	-2.2211786663089796	1.5751757165946054	-1.7563110161973023	-3.290399319906372	-1.2608522254816177	1.1907281472954905
or	0.17996821352318043	0.12657206692349113	-0.8678613946744245	-0.659620878004686	1.4171818238714464	0.8867314661435387	0.11530394180559808	0.11400464687255552	-0.8599943950189896	-0.23333318863247943	0.9467413040086865	0.2981013640967435	-0.02968122247366889	-0.13870559925699932	-0.16955941503022198
steven	-3.4604707167211757	0.5880453955229917	-0.7400755037323573	-2.2837818061762443	-1.005850174866125	-0.46856749603855435	0.7585438489587284	-0.4121894970708294	1.5860012171884312	-0.5650303728886756	0.1674947877984443	-0.23989900402822847	-2.3335155818403495	-2.838758903403977	-0.07450124069661745
.	-0.13668710861521255	-0.8425573326486246	-1.267478575725526	0.04636954017677186	-0.001425549072550436	0.12174491866209913	-0.005235034126845395	0.2204318139637097	-0.6719955161446531	-0.7567712955199504	0.2601337825970784	-0.7077904577455519	-0.8370744787643993	0.2916743224348949	1.089087367687807
gorgeously	-0.3844183974555516	-1.9751198895575417	-1.4055377830244717	-0.2894337622613432	0.021073057279798857	-0.9929255504556673	-1.1392047953151172	-1.9480869137979988	-1.2597754146637012	1.2619272296484518	0.5156084939017418	0.44317248416539645	-0.44563168353530613	0.5705727764137996	-0.6511948529323597
elaborate	-0.3636483427986996	1.254111751023919	-1.477467263653063	-0.22680102300107127	0.06478266539026566	0.7168355377283797	-0.20066691785130455	-1.4593321048508705	-1.967670751207671	1.6962579849073762	1.726515347117806	-0.2358179284192035	-1.1870788358979396	0.5375687352285998	-1.3891792209764549
of	0.1870439878789878	0.2307361002692167	-0.8082425816373006	-0.08854125036330784	1.1330615280195426	0.9850169800191592	-0.14687728515254964	-1.445102339342491	-0.3589987811843014	0.4042453189363885	-0.6073117357570929	-0.12395989485904262	-0.5761329482644314	-0.1849469265868078	0.43913575767848256
rings	0.7274745927542632	-0.13750967141309606	-3.0529381563218783	1.6807828074599689	1.684033971637768	0.3872317873962037	-0.8330766953600205	0.20638440694111782	0.38718421304440975	-0.21002677160159627	1.5926676972473803	0.7642688808129997	0.5131054832623674	0.2989139040908379	0.9956196270866854
so	-0.5186744264744821	-0.1853596691767455	0.5082145960381885	-0.08593872985847577	-0.8095596598503292	0.4705125328169456	-0.4255502101602625	0.47206567212188855	-1.0290066525910535	0.5133099751625156	0.5261275453906867	0.819488608078337	0.09876458414895406	0.5652525610147189	-0.5443644408918916
huge	1.2204769511137648	-0.7577257476771451	-1.5834628299550326	-0.8550501950423351	0.4746645283963102	-0.08841599763587855	-1.3691822517398304	-0.5558641419826076	0.1797051980076499	0.08878114160044659	0.5997267578245635	1.0413656004521346	1.1405600732711059	-0.06391577329805076	1.9930015035372128
words	-1.9994128015160992	-0.11850095316223774	-0.9702919064510911	0.21908953938663844	-0.1888946167697748	1.398404478576719	0.30974473907232813	0.5344010610118337	-1.1394263800906044	-0.35276356967761957	-0.638805622309371	0.5354581619227745	-1.8452510181558872	-1.9994266372623741	-0.32084195650696556
can	-0.5109968850023139	0.4927431222955251	1.0810943262637536	0.31217201986393395	-1.1341259408836502	0.643088132025512	0.7738064453967319	0.3053707813447444	-0.6644678249837435	0.1027529341869706	1.5625019044253232	0.3194330160187251	-0.44798951297399026	-0.4475741185718155	-0.020086675572756507
not	-0.5525415211242876	-0.29512284408422784	0.5022888142380599	-0.20772518029245918	-0.0012011802083002898	-0.5784093452904623	0.19469532425914104	-0.02473920390666723	0.011285391842308479	-0.5902292228993413	1.3551207394477545	0.2655598746558596	0.19259795851915432	-0.022782893157671458	0.35931510332720096
describe	-0.40832249036449764	-0.5641252882447305	1.011664428554287	-1.6497871379602915	-1.3351512738368532	-0.5238506666838678	1.4449099795041305	-0.6629904889501593	0.33049593355084417	0.52125832622991	1.9420520079533141	0.49276647272437346	-0.5922233929375879	0.4379162011651072	0.4378999437320724
peter	-2.1492066024801106	-0.7156452931147721	0.17638975871473694	-0.7708650527856209	-1.6408684944814889	-0.9787099548374989	1.937546317679361	-1.6709030946874794	-1.008877733180623	0.3814765896102013	0.10641655774077541	0.3179686962701198	-0.816927861943117	-2.8046520503072907	-0.018914767694785062
jackson	-1.2649865277444379	-0.5992754273556196	-0.03930679380611002	-1.404899481785188	-1.3934398068665539	0.06672635392624462	0.8549532487312784	-1.5133353928536797	-0.6554635530485243	0.20530279204544427	1.0106719771889336	-0.10384354365684419	-1.4053832177533616	-2.19142642597914	0.39890795094544285
vision	0.817877800039422	0.30010631211735106	-1.3258358214330743	-0.4634189931195309	0.2201681414866892	0.7157869265860156	-0.3331074401828974	-1.9257710053644812	0.1966363447696543	-0.17520040097980305	0.16792955112017105	0.5756404167123321	-1.3282253478966695	-0.8315542342674318	0.6209245331499277
adams	-0.8927303714901514	-0.9129484861544834	-0.9455688921279833	-0.9497885637296252	0.24294531325515334	-0.017096622368071857	0.18420658617617786	-1.7973623191740402	-0.5886082053169004	-0.1411800275278311	0.46420252549765495	-1.3465414333489387	-0.7303763459880177	-1.5403392478868023	-0.2757060465849679
songs	-0.32863257666584234	-1.9892647363863145	-0.5586163062007217	-1.371669421850016	1.6795124573037485	-0.4581889405355726	-0.819291176028093	-1.6993215115415636	-0.7731895216209458	-1.738436175490076	0.4931961240807523	1.8665875943554182	-0.6937367525607103	-0.3858533195881124	-0.23871323641401743
--	-0.7892837055507306	-0.10139202464941877	-0.3977416264155471	-0.4857388566603285	0.19533246095641174	-0.23829323736504476	0.23343362863267014	0.2953415370306599	-0.5278143830637609	0.34519608867315776	-0.35291708684165624	0.0960787412590131	-0.36859949445971274	0.021160964559158973	-1.2516115392041516
few	-0.2019893190698352	-0.35295466454779084	-0.27858923880424535	1.2459875184994629	-0.10014765241775583	0.5951594458177489	-0.5988003115565877	-0.6343568510381122	-0.5811862812180144	-1.70172055446733	1.7911449394297403	1.2404194172034575	1.0207059976563377	-0.8773766535442188	-0.7649757975824376
potential	0.06846815350654356	0.10845055611322152	-1.7831071564860834	-0.6647290358061142	0.014601368356924743	1.0064099742984143	-0.8619715033765674	-0.16350272431968038	-0.061135698174659026	-0.8228634266214818	-0.08852083129903643	-0.053262873312827114	-0.31870846209893855	0.8741336511001138	1.0454543682370412
hits	-0.351834686828818	0.04367134211756474	-1.9138258687621805	-1.298434188405507	0.8002375347676609	-0.13371069425760596	-0.265166210410505	0.16379841765384773	0.014268016822452378	-0.7093482329227982	0.5167137919132916	0.961592157257964	0.008751369983621027	-0.8491536721937063	0.375625317778499
more	0.0014058267137663505	0.45471168203391776	-0.7365515805199722	0.021576556614017646	0.1471274756031822	-0.6574868318291678	-1.2168315082234384	0.11438807562073627	-1.481531291081885	0.6608127713657229	1.2622606007282187	1.0395413436387224	-0.08991403929070718	0.9515441640265283	-0.08732779921595912
simply	-1.1871952135428239	-0.013598448310029154	0.17386850351330718	0.1591512176222048	-0.5530472620913787	-0.32006592008204815	-0.509847098663416	-0.463029361973996	0.47145094116989567	-1.106819840233628	2.1734368005994	0.37066841807760065	-0.524876627972169	0.259942460892359	-0.016793630353518885
story	-0.4372095683397309	-0.6780671762407235	-0.5627188960636346	-0.14162773686974672	0.6399511310866222	0.07620873645512882	-0.7992082376598415	-0.4016727913544038	-0.7682697295976556	-0.4085532564671941	0.9109179496903638	-0.7846426212037764	0.2158145002982797	-0.15192812712620712	0.1384982699284366
but	-0.0786353556266334	0.3178243539804606	-0.38913257367774645	-0.24850055475162525	-0.0870924210712768	-0.4201489982962917	-0.29090397971702586	-0.35863352961914763	-0.0708217134067326	-0.6324084154391763	0.8583536775843031	-1.2657922461221434	-0.8975821165538179	-0.016728103680579143	-1.2292536501416422
whole	0.6772426865813884	0.4691924866487652	0.17087254858699785	0.4387539813549731	0.3067079876616468	1.124283674040825	-1.3726926947021147	-1.2766229900470725	1.0301509400903877	-1.1819294968416532	1.4128386193100655	1.1029679696643884	-1.7982390996807118	1.7250599162599898	0.9623152955332821
certainly	-0.5871762594555311	0.05345208299506357	0.09207480723625527	-0.5394258358661159	-1.053159085025438	0.15639990198596332	0.26461126429961407	0.09764949640797227	0.6868251530773651	-0.48568710926690495	1.3353886990843473	-0.28111775182179194	-0.704347176637389	0.1924131298519606	-0.021702906268086797
captures	0.05190498448587455	-1.0463118937307545	-1.2823376196009737	1.5068933773611344	0.11665360251204204	1.0456878510130379	-0.008390932418104624	-2.240133936004919	-0.24359357706785484	-0.2693205114611128	0.46765561698528524	-0.0870907864811098	-1.2197960382900497	-0.5001714039855903	0.8213055307521996
intended	-1.1170931726920417	0.5526421001519586	-0.19929374633134156	0.40067511352181306	-0.441688353583387	0.9960838470409119	0.3217055741108213	-0.9329201742703989	-0.7491314460152331	0.09393208696972104	1.0677634844468342	1.0528360096562812	-0.7732203035744156	-0.49317624662866777	0.9276246573325159
spirit	-0.41815576565398127	-0.24762519865943056	-1.3845823446217742	0.9031300681816474	1.8008416341537075	0.6392809200150869	0.5439360826513411	-0.749500132301629	0.1593272159060356	-0.9189467684530557	0.924631759046488	-0.1647631077697729	-0.31473694259910645	-0.0024299130203926655	0.29542457292915836
piece	0.6570474013668733	-0.5352259770045086	0.47967625058008645	-0.2871082790602018	1.5091793318010287	0.5058715482906444	-1.0193308894614153	-2.342783323946984	-1.8419333337743264	-0.15362027742504256	0.8756418290382664	-0.6490163470665244	-1.096435972568907	0.19992867293441335	0.13828226418748552
you	-1.0509248565615503	-0.7281413654845068	0.7417452844290372	0.5141689350557282	-1.6845277219837325	0.71804603341698	1.7905826681982258	0.8192734728240055	-0.8717375859612434	1.0924282792228028	1.9733392291398715	-0.2833387116297349	-0.8926569027824481	0.9190529739152014	0.23870944631008062
'd	-0.33244616218118983	0.90204495210448	-0.06134114987641959	0.35981933609725336	-2.61278210519153	0.41053031971093845	1.3136802974045967	1.4889873342867666	-1.8983029366650432	2.1350131288998204	1.136627909901284	0.6635708242616662	0.693093371261188	0.5019723204742218	0.17896920655058934
think	-0.786890054563848	0.1864714848736878	1.1338777100972859	0.5451482119766471	-2.6495916829837607	0.8946487907877606	1.3369894339936548	0.6244578315416215	-0.8826456586876166	0.2747119747703767	2.043309098369914	0.7345214453466873	0.2016295757734482	-0.07202640167220546	1.650766557323387
by	-1.2151954579985464	-0.9183758029886964	-1.3200714149739317	-0.7319339368024254	0.30707546691099064	-0.044651455352225894	-0.5259165884965922	-1.2777120335222358	-0.12930394457887295	0.6160324050894975	-0.26979930361160065	0.6034920892612752	-0.7445960070101847	-0.8588868439060555	-0.11841590730743029
now	-1.3897149043411927	-1.1160279918687657	-0.4538551176174293	-0.2457459322235377	-0.3659176408748473	-0.9741069635462053	-0.662902246127564	0.05025716287829485	-1.1903475135546726	-0.5659134974569826	0.392245749899253	-0.27842853444047116	-0.36911836160263334	-0.4315144174925984	-0.54468186802895
america	0.26913476006290843	-0.5659813076631292	-1.158654109032794	-0.7105462513963571	0.6002319280202104	1.1787368509733402	0.9681105519739421	-1.8402656980700445	0.012224513836653905	-0.5251221221454702	0.1104426753102623	0.09418428325839004	-0.39750480422725665	-0.06179765781524438	0.3638999428359613
would	-0.4499671283006664	-1.1226658565337921	0.6105778986897016	0.12296702905016002	-1.1085075824897994	0.29848711227672364	-0.131199873117343	-0.498160118939062	-0.05737237898249714	0.7190283968638501	1.2931325733804193	1.4086869446229757	-0.10289861035004466	-0.5040461504893963	1.3504601188315597
have	-0.7620187848633474	-0.8775339038189324	0.42492833908816674	0.39847496808565047	-2.2063368070166325	0.5777986787682414	-0.4957311875875402	0.09796653324854299	1.118332446603795	0.3002264542931945	0.8254553563968143	1.9586591851101116	0.5642036023059991	-0.5912932160761217	0.7595015808968288
had	-1.1238899675507703	-0.22763526674723428	-0.5844786220665181	1.0973126348481677	-2.622459326235144	1.4093404539560463	-0.7716665753350628	-0.14401955323831828	0.22255720568609738	1.8524978826665937	1.08746009076124	1.593578596892137	-0.451428563621287	0.9880614852216048	0.4917790112469023
enough	-0.006477050699609632	0.5703749685293911	-0.13311757099038413	-0.9052564742523682	0.377506607085506	0.38190311288878287	1.1740873871034085	-0.5286175352863746	-0.5763014276191643	-1.1218812038588446	1.9397910603947814	1.626121387196191	1.420580587393097	-1.2509592575713755	-0.5283556635915705
british	-0.26136418341112355	-1.1860445535673467	-0.7677826322305792	-1.055569854420606	0.019638440356987502	1.689389772797776	-0.15979410168921557	-0.49877570167265184	-0.19298081060182948	0.20083693620527177	1.1490298954155886	-0.6069824379375599	-0.2835211148602292	-1.2423559774694233	0.08897972898810191
with	-0.07050224286014092	-0.5339537607018352	-0.8081669827115805	0.03183896694941128	0.16802733483774124	0.14060242420648572	0.535240296105566	-0.41691820339119634	0.05309164160109214	-0.05148403492034259	0.22601730377714474	0.820866994481516	0.7055050974172181	0.6193482358636373	-0.1311305695078817
hearts	-0.2666602047858685	0.1474560125767933	-1.4134132130063122	1.7542857575707114	1.0137486114158225	2.4924367709693134	3.4987957636838507	-0.4271715750718279	-0.2879856456080072	-0.3282900760756823	0.44398527233634644	0.6010353512162602	-0.44257310201112143	-0.5897988292068248	0.9149709115882794
yet	-0.4659502891629488	-0.11591892768891143	-0.3911325838322198	-0.6679460485625212	-0.08817336948646978	-0.19770509387791158	-0.23263353108495965	-1.0558365596257675	-0.9675168813991074	0.7623992196194292	1.275324180374623	-0.5903391347342919	-0.3652390125287468	-0.4304933824908366	-0.6410668140328525
act	-0.1578861106485273	-0.19747311504024734	0.1524604670406574	-0.5487533462518821	-0.22275513472510672	0.27891312236644217	0.7845651026796958	-0.6942276833781458	-0.7159873854369044	-1.1633873823944856	1.1440077987091897	-0.35042068734983967	0.21752324748436694	-0.14106351637712453	-0.15775530554982875
still	-0.4174555978370036	0.5673256754929445	-0.23475648290043538	-0.9317152573596392	-1.8211583068543011	-0.9039522720812324	-0.28515708141689244	-0.6560220081141991	-0.45404519685092837	-0.32774497156853993	0.8975549615426585	1.4548971570751197	-1.2161512996808908	0.31146125260519414	0.8387989245771593
charming	0.4624600594279823	-1.3280005337059184	-0.2814822684164421	-0.12834521836998075	-0.8832341056375421	-0.6225793025332199	-0.7993482337369212	-0.2254947033550706	-0.9979571348274788	-1.0919001098000654	2.2911058362573993	-1.1308521029065322	0.2921290571602056	-1.0331208825297438	-1.222539274914445
here	-0.9256946388145006	0.2232432451026432	-0.49585680599655246	-0.4317265864005258	0.05392332913373125	-0.2236835078079612	0.11510124133003855	-0.18626694417873324	0.32433980982749755	0.046964846980768186	1.8309746751822995	0.6618287260962672	0.0074610704358506474	-0.542920240128662	-0.2675300876627428
whether	-1.3768537666625047	0.6474064643424067	-0.02782639523167285	-0.36553475174489153	-1.7876822415825935	0.44688593570334667	2.5891818377257723	0.9863753967017475	-1.0275398463013992	-0.10565631142588165	1.0234420343817978	1.477831335115549	-0.8721739279275232	-0.18408151310419818	0.3985719843713191
're	-0.567059904602598	-0.8323153600165777	0.0687105576121334	0.22624105336351719	-1.6728738346257535	0.014029585017194979	2.789029860909714	0.8881626462246187	-0.5595029324325111	0.6133558447930698	0.885948584095906	0.5304347693128224	-1.307494239958564	1.0789759553903921	0.08476805236495111
any	0.7680800088623136	0.22219306638345349	-0.5673981156550394	0.4366060075854428	0.45323888416938346	0.39112084790435186	-0.15320846221408238	-1.2927439853384142	0.2816641306259269	0.543059317194144	0.6650556514858813	0.8521692481129285	0.30298181608013797	0.4210412801619734	1.039223965609117
on	-0.5418983958974231	0.07482373644246186	-1.8607913995517011	0.532970763947139	-0.4947592140284597	-0.2135816207705587	-0.4014561627406388	-0.2268570674773051	-0.6715253902785978	0.3615457443367924	0.16008019848761668	1.7494496212969732	-0.058498611939911016	0.37395681436056494	0.22059088662457793
other	-0.7480009178813536	0.5592446923382635	-0.5272516644316669	-0.14202501365183082	0.34955418818850864	1.8234809053572456	0.20026345399567586	1.314071389770549	-1.0389876598179182	-0.29213048249804313	0.003989798803127664	2.8930935180976443	-0.597969188917795	0.12327564696474708	0.408435130800435
an	0.14313032788923014	-0.13057630285795185	-0.05715041867228843	-0.7150326114672452	0.20805148410725952	0.42589387053137234	0.476365656664734	-0.9892369702671845	-1.1360874901195408	0.16710673505435109	0.6856844925336867	0.075882234053711	0.31120047667743533	0.8052013316131215	-0.09916310383156757
undeniably	0.2611577543634553	0.3262599800953449	0.8711583443961113	-1.0683430906656362	0.2855728920297237	0.4552236366083437	-0.4336342350004445	-2.378541819020386	-1.3818618221414112	0.6418327013084425	2.185059988981777	-0.7422551167602527	-1.8414274768496786	0.8042018674855719	-0.7840036313540011
fascinating	0.5593303255669273	0.24927380306589952	0.30749169362526496	-1.0260773763795843	-0.2645204546736366	0.7677211859581954	-0.3499837101437185	-0.740860266503362	-2.032648317009401	-0.8348078336526997	2.208168275242759	0.3504576102280237	-0.3566495105574895	0.6416422909934616	-0.42074316939897044
playful	1.2370305461657845	0.12256478625961409	-0.6667528618798967	0.18823065096319258	1.1379724216667346	0.7801056157144354	-0.4887946028420701	-0.3808092943589749	-0.46790486384438934	-1.0454426237912502	1.8219582244626094	0.0161661839416206	-0.30499931801152264	-0.4378280573116576	0.7967241043683855
fellow	-0.5044029049156327	-0.03657930947712601	-1.265606373122135	-1.0438163795974138	0.7223854956314707	0.9492601868681569	0.12913160608096952	0.04064343568246864	-0.8122134959302852	-0.5480256309401095	0.27162001329763474	0.989071096211771	-0.01351404802645062	-1.3540651489067175	-1.289797371696169
just	-0.49777067127143737	-0.3399844288107112	0.34511309675260726	-0.0048435595558233	-0.8747534250234312	-0.33130109983592854	-0.3247584378524304	-0.2872773082153174	0.015832674131317337	-0.6523599703879259	1.5153222280534588	-0.1273726282010809	-0.4499608457257632	0.7424988636472232	-0.485718266095809
involved	-0.7694657668779463	0.09340811061447502	-0.2826095747671511	0.06586996535319845	-0.6779032015395668	1.019921696821263	0.87363468172298	-0.942839721415578	0.1096548163108031	0.3900687957599511	0.7747546881415782	1.847886869508943	-0.9663601357119174	-0.018463922580367678	0.5898718301438248
in	-0.6864947535734152	-0.6767642200584848	-0.89320007832145	-0.07121079726219132	-0.23230961119011073	-0.14677422839301127	0.25890663424531096	-0.2895799855217736	0.7889158103546526	-0.10422704974352251	-0.6116037784894145	0.024123241853704958	-0.3226046969081465	0.1665665354247992	0.21926814735623226
creating	1.3389707774094286	-0.21285768275504152	-0.5089458013512101	-0.5603427441764504	0.923501727419124	0.8006282972810508	-0.4856756659191439	-1.655234822922913	-1.3654630617845909	0.44707553533220534	-0.1484794051473577	-0.04147066278012769	-0.6214823540747176	1.4077165493433297	-0.4080575800427261
imagery	0.09074052624397033	-0.06395126496004366	-1.2521802771526354	1.1565254288527058	1.188267526376489	1.3489251300950214	1.6876527905353917	-1.4839853128222151	-1.3618532249431707	0.11023129747655691	-0.15186905922328875	-0.626765736560165	-0.04753475500473514	-0.8507745545767945	-0.7217730201054341
this	0.5188836853793916	-0.346483428944064	-0.27808566987811756	0.4640080841259401	-0.2806018067954523	0.7002606594396956	-0.17346027571834452	0.13710182985716915	0.2219058014012787	-0.282377221962415	0.29324804012851013	-1.364124780014789	-0.8467333154457498	-0.6181004365477009	0.6943366388931301
madness	0.7730117198626855	0.5788381715946201	-1.5816389411971272	0.003788991743390979	-0.08404153734320609	0.2859502565991585	0.04482906746035373	-1.0174645776132554	-0.5925474030140153	-0.9304634455942484	0.4945900630259513	-1.4402933904892161	-0.95568336302191	-0.4710903955377823	0.629645405898856
light	0.004907856058932736	0.42261681140591123	-1.615763908182149	-0.7189723129027207	-0.03778287105519512	-0.48137282990248265	-1.181551762069563	-1.1086468323224357	-0.8741130098292422	-0.5856393884179112	0.17111185306138177	-0.098037566523348	0.49313871094034745	-0.4584715118244628	0.7472119019532077
astonishing	0.14047486288052702	1.4437755644459218	-1.788746803777276	-0.8008170575815954	0.5182499987177629	1.1435064034195122	-0.030305918343692492	-0.20198186788890732	0.32088599767948844	0.08093777223303858	-0.2124133847642249	-1.320290053125398	0.0061484454243176945	-2.08793005928709	0.5041127252085154
part	0.7783126443127657	0.4097846585980417	-0.4946123471844363	-0.0739285986911832	0.8891396837448616	1.3156215349547091	0.4224023970020961	-1.7334592501360189	-1.3671785200621005	-1.0082153705315362	-0.21788177709024703	0.03173469430932657	-1.5512894231322785	1.2214715529362525	0.597604232015464
charm	0.5024894971267295	0.35870636840012216	-1.3295253347914893	0.09298652314000458	0.1466180791813254	0.911801354276044	0.298575152526605	-1.5259201045965347	0.25480640174252533	-0.19319495686040056	0.5992463718860306	0.25557305301535865	0.1569963979307581	-0.1745366096805255	-0.5252266482620189
rouge	-0.9949840480698371	0.11058693984897372	-0.2934678673466107	0.5793410069757865	-0.7741580928876073	-0.10070768919771256	-2.4036918984936477	-1.1464195830189436	-0.8235384789406032	-0.1677272299993493	2.6267280975490594	-0.041921278538938456	-1.0291790576685482	-0.054333283784679276	-0.01950397323508013
it	-1.7926627474281427	-0.645641669652377	1.16537882198455	-0.38460478899788275	-0.5051903371160805	-0.9971277587201791	0.30871424238646933	-0.30062812752039975	0.802603953103034	-0.34463577173146337	0.9260886038093327	0.7655462207587028	-0.5093332731077442	0.2820251104842818	0.745735247371163
avoids	-0.49814818159229224	-0.4505287809031152	0.9734020367227737	-0.6557314282008893	1.6487573735634875	-0.646986180439152	1.4536099883309919	-2.723533940741878	0.39229256521690653	0.08471295295623792	-0.28585724931173484	-0.20151803143051228	-1.6268532722385134	0.2247505071989106	-0.5499232118815891
obvious	0.09969729691518514	-0.02788376665465586	-0.5758933910391965	-0.06924837587571181	0.4691811181321067	0.10381594472258118	0.32967642902743194	-0.5919587125262566	-1.6015449449866845	-0.13717488558164426	0.9169877744503971	-0.4184071408647676	-0.30658844329607926	-0.13727364881228316	-1.8933735980341746
humour	-0.9507493774308512	-0.8170778285698708	-2.0686412851916973	0.6076060451251496	0.8236240472232039	-0.5937209948637139	0.6538529633429457	-0.9806794580211535	0.04299808517538406	-0.9514701066338203	0.03458043231465102	-0.6179310556228204	-0.25335437230467317	-0.5414789132927534	-0.4055407473566696
screenplay	-0.19874329512189282	-1.3052370785890728	-0.2593636401267758	-0.7701185151434371	-0.05198083378809831	0.07823409045040439	0.3727770794708044	-0.6636527877154929	-0.773425419163219	-0.4738334768785827	0.6394311242707845	-0.5452779286348294	0.2644390631634734	0.2367237449948057	0.006517263249491756
constructed	-0.4687448443248081	-1.2027877214279674	-1.7597040990302588	-0.8056742238542209	-0.2626320085419658	-0.9544042736786831	-1.821099321050674	-1.0516019367394343	-1.5563809693440647	0.47583122839899616	1.3323422204242175	0.8411974507479056	-0.37664606402107825	-0.20474045230332288	-0.5693196090608571
extreme	-0.1519857825770496	0.08449330232131452	-1.1866894472639984	1.6954121780794353	1.602822628230929	1.6977204137508213	-0.44710766783283507	0.6696942404236226	-1.7248358633365335	-0.20498240953821523	0.3114507912257174	-0.4974649102739984	-0.4072977231824696	-0.06413084025916643	0.7360583386572793
expectations	-0.9011769920269781	-0.7808522353618268	-1.7844203537918586	-0.6239290988355728	0.1689479139732526	0.45654554521889157	1.4734084735687398	0.5819217736181782	-0.49132839334694794	-0.2881251015740844	1.0150483844577474	1.298197976033576	0.9438445245699185	-0.6505733553643918	0.6694548935185777
good	0.49343290160327163	-0.03735847269856499	-0.4940407727690562	-0.20130870988685726	0.3474977811461748	-0.6673794125413139	-0.4142549749833251	-1.12540130086753	0.44234461461697316	-0.6468660817512846	1.1107649335461345	0.43188788561060504	-0.604754576365681	-0.21347124834447445	0.2334403567379043
fun	-0.4746222469814946	-0.44875100424772907	0.6105125809188647	-0.12313362302450763	0.29683673756111595	0.05470020417132454	-0.5489166203811726	-0.32440849444415565	-0.6937983345991194	-0.3833332075606434	1.3651466412714823	0.7771799909595833	-0.25117995716676866	0.3512567562177484	-0.06099494981651141
action	-0.17319951570368364	-0.14963584589964218	-0.4605246158703743	0.7447326136999656	0.01706926539309299	1.61832732509489	-0.3797193032829094	-0.7866622272488439	-1.165681007893472	-0.9540002349401989	0.5494167989039856	-1.204761997550129	-0.5341782912062216	-0.0935047439276443	-0.25329221558166
acting	-0.8324729998408049	-0.3786786739779847	-0.7158775048032335	-0.04857272730775915	0.7743971052569169	-0.34682230768454864	-0.910577118973389	-0.4062847412812357	-0.73257124621865	-0.48966186266919637	0.46466065382808297	0.08365269581244611	0.1642564518906417	-0.2892729454764583	-0.768910684907387
dialogue	0.2068789816380162	-1.51294065563064	-1.3038742977888833	0.7651721481227672	0.7933022941006034	-0.34000144981879826	-0.34790441414983236	-0.7311581288749103	-0.823019561336786	-0.21179927511718702	1.1778205332651503	-1.3191783594714959	0.5032898404979402	-0.09112951054503696	-1.74561485426808
pace	0.6250146945031683	-1.0028002164291379	-1.3679325292958897	-1.9552934254645065	0.8313174857105947	-0.8297174203475999	-0.1250058743728596	-0.992915491213972	-0.12805873794522615	-1.1120970676862476	0.7793246518463459	-0.8316723309175895	0.04549114001110617	-0.8347602559710888	0.28417259190990485
cinematography	-0.39555458551834	-1.0755215812908743	-0.1968310810890399	-1.3260060514523802	-1.3821306948094279	-0.21871667441007986	-0.020950475252213087	-1.0928294416307782	-1.4428391426817655	0.3955304060038894	0.4263946893529913	-0.24223099576274676	-0.6284865604479467	-0.8658006925957799	-0.40225693672810936
should	-0.4815540426624475	0.29647902710137725	-0.7186043309496202	-0.08954918429974067	-1.4101850743503477	-0.007405024096908824	0.6860891147719784	0.10793782125439427	1.0440200185991453	0.7084343213882622	1.1079652617493556	0.38006453932211787	0.8032982531889427	-0.08282404184127413	0.9036645705194014
pay	-0.15122654679192737	1.1956451196536981	-1.233916188471393	0.37818987164879864	-1.1929205129351494	0.8957425468053761	1.701417709243161	0.8129371813596018	0.15403226567616518	1.8120303107722766	1.3185740545621165	2.9537705595595414	0.7937762734869721	1.6450893323592748	0.8865977707940578
bucks	-0.001178775320374692	0.6482292009759844	-2.3289644949425243	0.36139059712075083	-0.18479757116506842	0.7052872198676098	2.337456540977775	1.9414521505750038	-0.993288802225549	1.07068282499276	2.142195571124251	0.3246725390506605	0.7272817598259814	2.4384194337919265	1.1770483844828643
for	0.029635792475217804	0.7833474157355536	-0.7348329627318964	-0.3074479837824571	-0.008172698044168536	1.3543651526852818	0.7075901073576807	-0.6645493872010756	0.028987529461778655	0.5192103660589056	0.8580166109879988	0.8503817283303254	1.053802844612243	-0.048189659784704186	0.3779628763718942
:	-0.23597608344299575	-0.04336750355464558	-0.6556669322945561	-0.1758120239691816	-0.9300654848480594	0.6589151063353584	0.22262567535254177	0.1749702185015739	-0.6176959712268226	-1.033049834782335	0.7000523512976032	-0.5154674312368187	-1.0418744951170757	0.44593207919669325	1.3377228440187356
because	-1.6965279957370694	-0.6037042584457635	0.04223797116880357	0.2835439930391449	-0.32653426763217763	-0.10692396882829791	0.06957270866652654	-0.6088396323412151	0.0979186754172447	-0.21664807994072915	0.8321324905462548	-0.20819556350692392	-1.1910220086483563	0.4342143604333011	0.3802167878148682
hear	-1.2422045955930012	-0.5165177203836537	-0.04632976699544722	-1.3161001786997986	-1.2331047702314173	2.4034239254709098	2.5972580330821566	1.2918211441162455	-0.7261396703494537	0.19113089379776266	-0.03924175468228386	0.2966234352625666	-0.9750991469020545	-0.2622041210664925	2.042943956315538
about	0.5119474993232157	-0.12687999826339724	0.26156219240295875	0.2683215421773068	0.0532381294068755	0.9496384396922141	-0.4856176337640029	-0.48256859360581095	-0.1146147288440223	0.078600089483649	0.9248431360805017	0.8687313675702165	0.06250704557960288	0.4942483743449638	0.3469511160534738
suffering	-0.047829644857154796	0.09986293033905919	-0.9697612556488533	-0.5682759187039587	-0.18298820031686072	1.897209281479116	0.2354544695534595	-1.0195653244966978	-1.5880651788250058	-0.0015563447504982585	0.2920848365238058	-0.2529469658815713	-0.5705318415848434	-0.70565803118037	0.43451110555399775
news	-0.4237711666988685	0.08122577497112685	-1.7238505483823974	0.035773744700090815	-0.967913806003764	0.18902564009574857	0.26883178641609184	-0.7377712500764135	2.3610040684605527	-0.27127874395548807	-0.798808610228511	0.6628519479466335	-1.5976226124560862	-0.9612584982582612	1.4706651905935908
dramas	-0.19995828274803873	-1.842252692598892	-1.6060292120146844	-0.9400964291438786	-0.39035642205623855	-0.721239603498925	-1.6681661236541472	-0.12995399792854512	-0.5452328482313651	0.1821795707241064	1.9408075866450105	0.3899545178742503	-0.2437581531796365	1.0549234979652902	0.7896385752869306
like	0.7579202996173888	-0.5122355946917836	-0.8392041611499752	-0.13625033655909857	-0.14430736280105988	0.2867086147863653	0.10175601408195191	-0.12767988791019858	0.27351632934946646	-0.3186584679476112	0.8452424930572939	0.4528034529517485	-0.42546677609174394	0.5319805114115075	0.38215257820814896
human	-0.04028258222481318	0.23593112030702912	-1.1616025381281023	0.18328560723970502	1.085195730647167	0.2814844554264826	0.4552891854966338	-0.9620539893260132	-0.003258467530053877	-0.7351893733512623	0.6181006771818306	0.5662836648717496	-0.236873794892218	-0.4297739006736613	-0.08848308453090437
ride	0.5984660203736227	-0.4368677054749537	-1.0633197115924367	-0.5870006727483672	0.42793210367685597	0.1121852351648272	-0.9741737491395569	-0.23378427233422772	0.5105408075945376	-0.18066856930323347	1.878704680994737	-0.19721074443735082	0.2751823083983019	0.5271408326175758	0.8553880370515243
at	0.2073508914224242	-0.9878644691017026	-0.43265883157026086	-1.0273807469217857	0.4194698576467698	0.04230985248422947	0.6444735345327526	0.321615354409326	-0.17019897523714012	-0.44113104912470275	0.1434457262633041	0.3682273230016246	-1.3842051612876802	0.8451144004480289	-0.37073101422239424
first	-0.2987518643598808	0.14678024029941256	-1.287487986451429	-0.45570799034472864	0.29312312999940365	0.9247040767252268	0.26514048749838365	-0.29343524816141475	-0.4820427487454715	-0.1195603613327653	-1.659480850508929	0.06517454609724727	-1.5445102404975914	1.1296726016255192	0.37193704479182776
quiet	0.4129879651015222	0.6332270930456042	-1.4519998164793784	-1.3399044849467838	1.2434756950862382	1.307573673479355	0.1456546376812008	-1.3645837240254208	-0.2010493037678155	-0.6982952094920162	0.3884799148172957	0.3802897431959045	-0.39996612042434554	-0.5969337717420508	0.777838921661256
pure	0.4477530323031266	-0.8360357274899956	-0.25861615226589263	-0.5754162760242383	1.008146393058995	0.8827687871529035	-0.38702805547158164	-0.3128165332717454	-1.1326430387666693	0.10882518822876198	0.638668986060601	-0.09173200657723235	-0.7659400225120748	0.7839265773068216	0.9900303684724094
are	-0.5193527191122557	0.47647293692478365	-0.30225639257797554	0.15281839128425595	0.25117985536449183	0.42127202011316045	0.4632635517995579	0.22819717951116703	-0.20959238063187577	0.7477033401800154	0.7634950149388201	0.3616012742218546	-0.9263440143027619	-1.18472951632666	-0.0836433179617978
far	-0.34641173027257627	0.061858963444321347	-0.8135332765674504	0.07943352079547158	-0.29796948791624756	-0.5290161145580584	-1.5516895189175457	-0.4725731524402986	0.06856839469053622	-0.10923152823596283	2.170951001828503	1.27908858490177	0.15417429882526068	0.2900371173962061	-1.4511333685413002
between	0.13116148526797933	-0.3475891870023239	-1.2821796172547368	0.041354996646081665	0.33030359321837116	1.9189835624126266	-0.41939106892720246	-0.6495043867671002	-0.5882092698952633	-1.4017679452095708	0.5769738202588658	-0.3612519949716514	0.057732118839004615	-2.347105305257537	-0.39971568444897704
;	-1.1863894295311839	-0.35537154839149226	-0.4759124536237209	0.5329013397354221	0.2615591024800888	0.37002818869548393	-0.29734711199334196	-0.010896435403899729	1.017753588145369	-0.7660372086678693	1.6453454322630972	0.2508128473651865	-0.050186310851014104	-0.08732155885539192	0.08225671781021499
their	-0.4619522647964296	0.6682437405993846	-2.043969456612084	0.25422284075158424	0.7318151501892238	1.1174256203120223	2.1722788777190027	0.2752003920773949	-0.17683333336721468	-0.16112793778693776	-0.5719444511752323	1.921237275680432	0.014664819142198415	-1.1290531531652404	-0.15285345928421892
otherwise	-0.8658247008747965	0.07656186211492763	-1.0986793481373938	0.11771707250651937	-0.2138307288883982	0.6332999034322073	-0.3780407216572106	-0.43048440757021933	-0.16236644313237808	0.4450600085756039	1.1429182705272913	0.1942797090770605	-0.23457446633097256	0.2811535064451898	-0.8287415827141538
respectable	2.1398377054915594	-1.4071310844296065	-1.5559941384423868	-0.8597178218774435	-0.19901607139397137	0.2184494651851604	-0.7337381567242235	-1.1231376714043768	-0.4806885945988393	0.1217095238816064	0.7483922965504902	-0.5850315475362973	-0.35223213186800045	0.047963407156666235	1.8789278679105572
flick	1.3315190381721618	-1.5271807420565384	-1.5282542299194113	0.0391867258483521	0.20338359338914497	1.0670781967466882	-1.4722791313048207	0.9470132048222248	-0.8603236252191995	0.07490583128724808	1.3035213550926041	-0.6875203218070739	-0.11328074966788862	-0.019651733659536853	1.8767455150156822
some	-0.4750541787465013	-0.8551092176219527	-0.6804958941851782	0.9670592848635606	0.7780676334713544	1.2615923473643482	-0.31159174801605505	-0.8924995608994333	0.13385955303833025	-0.9645372613228462	0.04557892947698572	-0.009711005713998466	0.03233940171452543	-0.31307871455979014	-0.13186536571081517
truly	0.11106361914643759	-0.4050084114790385	0.010979341603874038	-1.0136924131462028	-0.19355157137262316	0.6494064124696128	-0.17882259071958923	-0.9853955843734509	0.5114028694471633	-0.44431388207936107	2.040819418765211	-0.25356222162310627	0.4817307586192303	-0.9883226762279634	0.8045807043832895
excellent	-0.18350844789433013	-1.447084312617884	-0.04120979409165004	-0.6979759661574041	0.5474888360971462	0.5566413807560461	-0.22853153911005822	-2.0775946705351647	0.4751579780122744	0.41166176841094465	0.9659803099502668	0.4214134045685819	0.029367483356338875	-1.2274344659350118	-0.4043096456286262
sequences	-0.0026784104952140286	-1.237037615164454	-0.5275914889280232	1.7645787137444584	-0.08354012520883003	1.6462735260824677	-0.4527645903065294	-0.7831927432096253	-1.1053289171386134	-0.7259738948297962	1.292980967345287	-0.4329775224157334	0.2964336068439597	-0.9889734788223116	-1.1118842275632301
john	-1.1731985491750645	-1.6027530664894647	-0.5858347950260413	-1.5366887536972955	0.40314361501141177	-0.05819605520975957	-0.8286342151039999	0.92110931921112	-0.24520423045483336	-1.1585344269294995	-0.7279792731419706	-0.7690651720731918	-0.925912423216161	-1.2455300329023704	2.386247717649531
english	-0.36939819956342534	0.15689087462013196	-0.776093388122905	0.3881059692644544	0.12890812685857772	1.5516844688894917	-0.15174569136840255	0.40062278375835775	-1.1003210179002905	-0.14292200508816175	0.704633459202677	1.5711986391772106	-0.22663077444451157	-0.40003794466131354	-0.10977732299858053
terrific	-0.22069874713737844	-0.613307995714715	-1.5403440063139728	-0.36300812283286155	-0.7720828416298029	0.5096557971116524	-1.2261724738161255	-0.7233922211618657	-0.779200353006831	0.11538041192443518	0.15631583680856065	0.14926854870717732	-0.41832611000565806	-0.8353054198631977	0.2969546281304809
effort	0.21084070034473756	-0.30426980955895777	-0.4962189726323073	-1.7218651687120143	0.8823471211206757	0.595253778129655	-0.17271302389794435	-0.9883039529406986	-0.31554453329816246	-0.6461242920217792	0.871972650012546	-0.5581089506383432	-0.0531796113342759	0.1897179205619975	0.3355343684525227
energy	-0.32615491335546776	0.8006637761620959	-1.4701884312133973	-0.15533808799713028	0.07209213568963457	0.07651997460503512	0.6271335104876196	-1.1552611491522082	-0.49295732917441	-0.352349967069943	0.4485803426753321	-0.26502494149156164	0.046944922562047575	-0.3754897610794853	-0.5406644262307116
walk	-0.9282249417413808	0.2991087772628501	-0.7424035165284486	-0.4620699169232065	-0.7053631222290988	0.8570225562878486	1.3053741703381991	0.8989579000912454	0.7095618621447836	-0.6329116764500511	2.6036299493418675	-0.08883815577570159	0.13022827509525514	-0.28748983662237737	1.5248595178728972
out	-0.7463952435812689	-0.14588166877588982	-0.2047455434665284	0.014340527418726073	-1.0382092695819187	-0.5044090486567581	1.0478586103202945	-0.3494725727239153	-1.0378236556470166	0.5462050096278183	-0.3346912425229598	1.1645361698314325	-0.7467739309827499	-0.08468963764644348	0.09041210087542018
girl	0.20791180927156927	-0.7083108639835287	-1.2959482749939242	0.09685179865108007	-0.2395939521163038	-0.7601448860807103	-1.0838365379623913	-0.3009101473894824	1.4022902683606284	-1.311921260753118	1.2076651430525227	0.11869716676730793	-0.15632115932125445	-0.04550086470052353	1.0276609916234811
mixed	0.14633520741932582	-1.2247663624662215	-0.5827312838933147	-0.1746582606113704	1.5728521821462693	0.7925241748274647	-0.20472610405466823	-1.9406578364838287	0.035662528128487025	-1.5582742229947588	0.9344394047133506	1.5642522402401529	1.2173983914191933	-0.3136634032719704	0.46149829423288014
emotions	0.05546427438015766	0.5018261330362971	-1.4032543062368805	1.6452900720596277	0.966278495834018	0.6687731535441741	0.5687602160130611	-0.7735512996200717	-2.2636076311943736	-0.9801838674281016	0.5876804054575686	0.5479633066239649	0.036728276909448465	-0.9483000399931684	-1.1818450022927762
combined	-0.03107670949219299	-1.3080824375973117	-0.5565611143011022	0.8407975158370915	1.4266099832491108	0.9192110855634503	-0.05608425457631483	-2.964161253008948	-0.28246412230142015	-0.6106721914327494	1.2693028091095617	0.407858223478087	0.2901532991403313	0.674133205004622	-0.7063912488867111
understanding	-0.1659092710422404	1.214158629992092	-1.303130603293647	0.09570888828186502	0.6775719961904093	0.14823118251833461	0.6426879649952337	-1.7558825516753078	0.3136893115198055	-0.42556185919595724	0.9198414300513533	1.2667512199783992	-0.7220193687720864	0.07283451086685166	-0.32882125772509924
her	-0.46684839897181596	0.5033598615355088	-0.7229461606101072	-0.5256097069117195	-0.2844192772127359	0.7330371925886258	1.1582143427709621	-0.33868661525695765	-0.11293369629284186	-0.9871800176551246	-0.2954088111479527	0.7951958828313178	-0.261321212371287	-0.9684549361769251	0.20921222541132395
philosophical	1.0056119912933108	-0.14900352044437026	-1.8342446033880815	0.5540877872135326	1.7069803101340524	0.37589380932409566	0.3264899825327686	-2.214609844273862	-0.8052979403004676	1.5141338078372313	0.09966086168833899	-0.2982645788504694	0.5346479562222601	-0.12117521826841443	-0.5672536748427562
message	0.5551579195114683	-0.20005181451592496	-1.7098477335389974	0.3545844857378251	0.4462002726607759	-0.11236182708154352	0.47308290239066364	-0.9955585944864701	0.1207300719591573	-0.2263462718783488	0.9051983598786066	0.11938669231737861	-0.6918175132036294	0.7060916417131027	0.28794740327863216
personal	-0.09042769632454328	0.3847507701075658	-1.6288538106981014	-1.113110122601992	1.066871587590643	0.5735058797504693	0.8641620318766944	-0.29705320499711235	-1.440651097803691	0.37441548846944495	0.3943515295860507	0.45184639788062486	0.9178564567884391	-1.0183800790497242	0.3421421932508617
freedom	0.6158371856430478	0.8860985407701222	-1.5148726799454733	-1.0629834033959094	0.5113090697924261	1.2729802404372	0.8790118714089309	0.4551899567432631	-0.3410960268911945	-0.612580805007213	1.0609819493693684	0.6095525048627074	-0.6999683311118818	1.023633639198812	1.9590408101728056
might	-1.2987549732835737	-1.0142949784072508	0.5439517511455836	0.00537935860248151	-1.3154072259023235	1.086516220609992	0.7473955339727589	0.15336713184501627	0.30085682025826943	-0.0038002625005253143	1.1252078230199491	0.8850664490824725	-0.183214421477641	-0.3532017006606903	0.9004248764764077
as	-1.7226740141413455	-0.751705737619882	0.1809272735177505	-2.01876904289246	0.09371434700412512	0.08966096643009591	-1.0786010472116414	-0.2194570977162943	0.4426236136951978	-0.4412002998292973	0.5705833243436916	0.13896313803954186	-0.41950232787101366	0.5594675070342673	-0.10877834732468203
absorbing	1.057774344446298	-1.2343195875782647	-0.7880661633362349	-0.1382190075113795	-0.32371079231118305	0.5056199049928314	0.8651994388055058	-1.7709715062566072	-2.2346402085610646	0.7743881709497797	1.2681579266712921	-1.138828142293865	0.5663568415671769	0.34952027524000495	-1.2228359240817273
character	0.49384279370614403	-0.5790055338305332	0.031543470423166964	-0.017115578793958752	-0.2255563151858117	-0.38668369866727803	-0.21126020788298272	-1.828592763644111	-0.5192887486534801	-0.14177877569887595	-0.6042248457410911	0.4257470772447355	-0.30097141888149703	0.2117978642870746	0.1816774936657789
study	1.7810245054320415	0.3180134530370096	0.23119823594170863	-0.3761940110636251	0.9204801064299899	1.009507856998503	-1.4275822860665728	-1.7522199953898159	-1.603113342440842	-0.6283100012589142	0.5252337998195988	-0.3339193369404669	-1.1039191505277055	-0.04370415818532347	0.31814776068407574
if	-0.9444496880995976	-0.526658998311389	0.6571560226892863	-0.0715866068531875	-1.8436920017473861	-0.36688345893281726	0.45575616541946345	0.9728035721927275	-0.6527639470924078	0.6497957666832315	1.1424385666502712	-0.12298260797420096	-0.8653364188646	1.3272110910820083	0.10692841930709826
love	0.32378718147524865	-0.7127118113204232	-0.18681183293516707	-0.5792313942079678	0.4380244856158436	0.07022448279602944	-0.295537493609984	0.02845745671577135	-0.0781598099476038	-1.0657746561208308	0.039837983416662226	0.217485938406088	0.39400703828757644	0.43628489069443427	-0.1371989193725784
reading	0.02191370046862995	-1.8017474305701606	-0.7380335483127112	-0.11271969334802939	0.32994272236465755	0.6968835439801421	0.6678439352618702	0.2904199762251674	-1.0374451230198347	-0.6445298551524961	0.6030131393957328	1.86776669478897	0.3562748522980541	0.15188541490329444	1.1673552645737495
poetry	-0.2357267350319614	-0.8932041677438263	-1.5620675621158329	0.4679069707886553	1.5003355749862293	0.38312771730878614	-0.614356672429847	-0.6079510040884494	-0.5002219573503933	-1.1561995225835817	0.8081321625648702	0.5268253691898833	0.5658791989410924	-0.5255596803192334	-0.7073260418712735
then	-0.6504559151240951	-0.6789190453194941	-1.262119585007388	-0.27094273661768664	-1.184037669712191	-0.4835783994655004	0.9756791053995171	1.3196963641008885	-1.0415519509764941	-0.36489367789828453	1.1309314878962669	-0.18971722009358702	-0.3313445203599202	0.3767193678307377	-0.5071051539949514
all	-0.8373099617358906	0.19357480744526157	-1.0845638984829273	0.9849719233029584	0.4277358232441931	0.7956502521417009	1.112983137293556	-0.14141460500892022	0.7949614858775433	0.28500014761485304	-0.18817961372711067	-0.07553079736167262	-1.082146196766077	0.6774989796539423	-0.12327052382884274
means	-1.0011206157044485	-0.5002883436123108	-0.5958126404876503	0.5347575785444094	-0.33890891528424405	-0.9460153591742463	0.41025665211340273	-1.1141325447861863	0.1970854870386281	0.9676794543777182	0.6414197761837263	1.0455273268005203	-0.5915160750715094	-0.244711608281022	-0.1455320590609227
check	-0.2994961041486456	-0.9203958158409625	-1.7792393614518878	0.5468721981601823	-0.8125654655827605	-0.44337790776429753	2.2519861083312476	0.5675877002476941	0.2810621896799437	1.708637996517477	-0.15407067771185745	2.70600895598293	0.8634904326319004	1.4065045882638505	0.8140709976401173
'll	-0.42699215042606475	-0.9938799006671248	0.8941193552193286	0.7434832509207515	-1.492043017098251	0.21363700621352555	1.9628026771456035	0.4821196135382455	-0.9013695799981052	0.9367462472539212	1.709622072150979	-0.5148986182675698	0.5217568093450562	0.535378685436833	0.15346496323054948
probably	0.13348677412606838	-1.0147880937779294	0.8259233800829268	-0.7701815529397539	-1.6139338238395127	0.5240171392507612	1.1466475500527014	0.13950858720704512	-0.7785071056481304	-0.10843269066559313	1.1947429923945097	1.0123302267122596	-0.4602525427969518	0.9707947204856814	1.0957393252941992
frailty	-0.7753613293051322	0.060558615113990744	-2.304646872232311	2.161945723673531	-0.27411130306212284	-0.45015927907169945	-0.4874924479892759	0.69754949202812	1.2337101695551738	-0.8860396701444422	1.8869391242862936	-0.2971064174071606	-1.8381471859800549	0.27316383542868644	1.5876734528780194
has	-0.46467078665829453	-0.6821380954995407	-0.701379938877315	-0.06254225293414775	-1.1017934847108872	-0.4570374273211061	-0.7539701148026793	-0.7263503430355519	-0.48115151466917155	0.8079166578085004	-0.02716565894531975	0.8096449267953971	-1.0920042346625072	-0.44800644280585045	0.6047509618532789
been	-1.0799144362294961	-0.3868833334387829	0.09567495918280333	0.16441093980501742	-2.5401043741091582	-0.0925756438793709	-1.231042455726249	0.3663484276024998	0.40733539273376934	2.008436791805309	-0.045875833638359675	1.431991586518383	0.532507909405552	-0.8045661912918585	0.7504404098022947
written	-1.531494932790282	-2.282634358455909	-1.688650063593824	-0.824610109562916	-1.7362386144792459	-0.40138172661843685	-2.0285493886997417	-0.7951263743159568	-0.3109881996641912	1.1558967650566208	0.23596066195795928	0.44788331960814803	-0.06576439190506778	-1.295054431128116	-0.9765373686190082
well	-0.6155584715843363	-1.769045170930525	0.37282367634210983	-0.9136751133195803	-1.1610087392642738	-0.2985109739152296	-0.2678862807497536	-0.3068431365648593	-0.3739855204899879	-0.16627950224158913	0.42862076053959375	0.5854960682212125	-0.6642389831847365	0.6871769937498255	0.1629117830780067
simple	0.008228360649749522	-0.6866997507929757	-0.9353395025313377	-0.6017720009795244	0.1450396924268026	0.0558825077049622	-0.1625181858970689	-1.170703009221187	-0.8006157021794671	-0.3921621037751416	1.5171478331700896	-0.14668598294942117	0.47487822408232855	0.23294395142634305	-0.1463452957807878
!	-0.7460364953635689	0.831849121371698	-1.9108523768848422	-0.25530896721922197	0.1186996318810627	0.8362691083868762	0.09636106284395947	1.8777272130057177	-1.0846410574895942	-0.5054377408724492	1.4571517905905416	-1.0163882287200032	-1.2701101101202172	-0.8318918438648062	2.2632080666000447
near	-1.3898232274344602	-1.8908717415605567	-0.9220634502023022	-0.37340993270561523	0.2186515377782454	-0.17727685563590445	1.4958434212682972	0.6920586284293182	0.5568964262900703	-1.5991693107216962	1.7168001249587077	-0.4556159544966414	-0.10257145303306825	0.3786646177067987	-0.05458862886316995
end	-0.6525406129774471	-1.2363486200136553	-0.3801318352776435	0.3062989454836912	0.4738585357081004	0.8257414139842909	1.280816162205257	-0.05853413239821714	0.5184720950777271	0.36534691377928274	0.25232857542780573	0.11996051492748436	-0.9724890527701653	1.164318811477473	-0.006436253121761326
takes	0.4007672752639878	-0.6830894207633031	-1.0633677881833328	-1.033926707689572	0.14253647731299224	-0.20627074274797758	0.24235087047792556	-0.4986669148848042	-0.7247292718578029	0.674240594814969	0.22365140043257914	-0.3932861418649074	0.29566374078843616	0.6823223113230404	0.19182844178077502
meaning	-0.15363946331278067	0.8742604391578461	-1.184846201658804	0.43638430222322144	0.902893945534097	1.403183299527147	0.9026094463414083	-1.0428602174726613	-0.8188863550929897	0.7094897681169029	0.6725634216717498	0.7890455755669042	-0.5789657165398416	0.665959867520519	0.11553857940136969
bringing	-1.0318691082595566	-0.9545690595610355	-0.8181181140504102	-0.24132195011837476	0.21373521338948392	0.261111176144073	0.028612855539325882	-1.0403565093129605	-1.8155754764143555	0.797019431361309	0.36573090135548214	1.3861642632610627	-0.029158153711006274	0.7715652701061229	-0.39854238758336463
unforced	-0.8115102449686242	0.12603946508498076	0.06896720276663537	0.10010682699642687	0.43445734270567	-0.08395245477688867	0.6162904212073423	-2.3806992766854407	-1.7826475886345303	0.2874780553234211	1.0310988777095	-0.6653366260103776	-0.5860632726683315	-1.9956591903182557	-1.2061615514964628
delivery	0.1797198564312943	-0.07134597341833632	-1.7415364576438284	-0.3536755076778305	0.28150900570435156	-0.7533989105732861	0.769759916593394	-2.155827017863935	-0.3272578126677834	0.3516203914054625	0.18919375710251574	-0.5127955755301468	-0.5597145158342386	-1.3600453310867338	-0.0229688739153856
toback	0.5495467474370079	-0.43341734447165603	-1.0941092762775113	-1.7264895809991374	-0.14054376873856234	-0.22408692166876537	0.9719149761120628	-1.77120186397033	0.20701466788064982	0.12612754152187672	-0.004235999167596871	-0.6101921913591993	-2.0083699383015827	-0.8398192441249391	1.727279957421834
-	0.2418532713132092	-0.2959965976084815	-1.7044022100435485	0.3172005983244443	-0.5099184620935311	-0.6410221100044209	0.5528075544351578	0.002153098551359922	-0.6573906940248253	-0.5979725976737099	1.467702617077772	-0.3565400036734274	-1.0087858197612598	0.788427005938926	0.5507646796342095
film	0.7926660539667604	-0.5930365216784297	-0.4376780659522178	0.07628588624741257	0.43730546778988155	-0.37684805430548385	-0.7506578811916091	-0.9257951111958714	-0.41122549110856255	-0.5005548602141381	0.07233658739841609	-0.09531627574768514	-1.100637074755044	-0.6384563420138327	0.1200457737814079
festival	-0.09659695333104859	-1.7369231037829351	-0.6437709642586669	-0.2020162823653749	-0.24021177984788694	0.20767270765586732	0.0012227418106241505	-1.5363136676595908	1.0522336199392022	-1.0452400356653466	0.38235933305901826	-1.7297549242784864	-2.5767023925931074	1.992126690083659	0.5976066765776046
become	-0.5831372106210104	-0.9487811284865928	-0.5074717559981516	-0.02315573871928378	-0.4182541958774806	-0.37290586414682925	-0.30162452158392206	-0.6675323186832745	0.788085524068434	-1.3243604678865173	1.0335560199849438	1.3889837578013409	0.10415447705917369	-0.5268537404896612	0.41067803190759783
fans	-0.052017966810272015	0.6561790116424471	-0.05552412956071073	-1.2404909769264383	0.5792220446076297	1.7018302292652683	0.8113078724253702	0.4098512831636227	0.5926100290333173	-0.1816514750548186	-0.07412277046235405	0.6762704838596784	0.1695277568397913	-0.325038702431977	1.3667613313582394
upon	-0.5424956554272773	0.1721889859454185	-1.0537533701547654	0.2963196302573937	0.05612808881097209	0.17479414910242935	0.7803198200820445	-0.771479899022228	0.394464250694158	0.41237996924645615	0.5905061393984791	1.3873339148336772	-1.3650528634790968	-0.7559606167349386	0.7620405185352987
each	-1.6392768722743325	0.8396257260790303	-0.18748517979439205	-0.3229014940673737	0.5448255979901023	1.8291489442253077	0.5382947962638891	1.1881509412154592	-0.7412205480868392	-0.46027666926111754	0.04001385497907006	2.508263366775956	-0.6257044502064905	-0.19268097143292084	0.5988328289245389
next	-0.3757086681215953	-0.06268911292677043	-1.2946363044234026	-1.8754300255067875	0.13546539352633635	1.6561109433068668	0.695097248152216	0.780975328249838	0.18811249465774604	0.17146882853970283	-0.05071148538296377	0.6374116109969923	-0.07684324284066102	-0.028202025394554187	0.5444980194052447
great	0.6121186662065417	-0.10709304092250482	-0.16575412868421424	-0.8937169655612727	0.6500057544201718	0.07340310362171337	-0.6890155377514988	-0.4294251030197797	0.4001614193708854	-0.42667688365529965	0.38523387860758107	0.5961871353130886	0.14603623560728524	0.32794160340641776	0.7673833599955449
thing	0.14132839389972118	0.3929827348606015	-0.1596607192561914	0.8549064129853463	-0.25224486266688473	0.7177872784755179	-0.4047590174967881	-1.5556314925567	0.9821551447051703	-0.41021078890350704	0.8559290012836089	0.04493402322751716	-1.5394458155818345	0.5467424016934466	1.5268635742027306
`	0.1854890733334085	1.3895372587944277	-1.3869739595829156	-0.09101834831406325	-0.9856009368787442	1.3533232898580034	1.4384188726475713	0.7692085129851247	-0.8886478381866976	0.5485192749291492	0.3928936786912345	-1.2870693045441501	-0.5545235865838324	-0.4447694984958237	0.8645180152568281
'	0.2416353635565911	0.45053956691583585	-1.8455381405390145	-0.28543193255058685	-1.1458793481197513	0.6017836398845539	0.665406763772489	1.7094516323596687	-0.6576794520530789	1.0333110529913867	-0.053815248796934334	-0.94968884515904	-0.5418207159209714	-1.3761761589348551	1.4026676311502209
was	-0.09048607884540666	-0.19192402016099436	-0.11836526082523752	0.3816307383619175	-0.7284938703766584	0.39751763730159984	-0.5416216497821158	0.6225870381457196	-0.06675456025799556	1.2291013903890522	0.9961616290642645	0.431605647952641	-0.17423296908287272	0.6806242544243768	0.842175363755569
one	-0.32200010693013403	0.849751969062126	-0.5090139312422033	-0.20057884676418172	0.3238492028321048	1.4301064402120778	-0.023401730334565718	-0.3625783589691768	-0.3192058668202895	-0.08347838420495815	-0.6889249196472987	0.5056703638484592	-0.957319239057105	0.008931490977761067	0.9802781906833657
films	-0.5372454106770305	-0.20480748625664677	-0.01509250462081091	0.939976150658004	0.21765388208157974	1.9467269703321395	-0.1684022444422325	-1.2319569841191051	0.5915638721206193	-0.21991572605387677	-0.3836873013370312	0.2898506129792545	-1.805672439310461	-0.4158298152097839	0.24285758167269397
year	0.26010996912609663	0.0995025626257297	-1.5620695611491036	-0.32566196713324336	-0.057337914519627275	1.6130716121729543	-0.7160368324276989	0.23759050904971857	-0.4185287188596243	-0.9479303854925981	-0.6076676955133037	-1.5968804115698472	-1.3968152153689273	0.7174172494852273	1.2751814675280164
really	-0.8012338840296026	0.2128518266466597	0.2785287278661586	-0.10017042648846675	-0.26147034519097945	-0.0383233872407674	1.490288778764376	0.28958733614328347	0.9723175018058735	-0.08829805728090528	1.8841532623574682	0.14394162383980916	-0.43032840739206646	-0.028195033135864772	0.12351369764781778
pretty	0.23385534712567563	0.03430266959603845	-0.5015831872990832	-0.7547909174535102	0.16779187685481334	-1.0124660757629798	-1.7268902789636595	0.4683966908835384	0.510564246789872	-1.1891004075536666	0.9871759984873283	0.4119048453215098	-0.6194549733582124	0.17975142521945908	0.627158886001148
actors	-0.9802628682294503	-0.0481791673250515	-0.6188789726149215	0.21898496740897444	0.5820851950373364	1.1843905193013302	0.42055973446486355	-0.5087898373368063	-0.661464178920881	-0.4113793828962216	-0.016088039694597267	0.9704433905148246	-0.35695333906227056	-1.5401042530629159	-0.05433215147448689
fantastic	-0.9524782896720319	1.2699286794366216	-0.8844353012294539	-1.1210069418900541	0.6996372949075422	0.5602834587098013	-0.3529450250570936	-0.6937147865301894	-0.3840090693186857	-1.5175228896189679	0.6590651458626249	0.23343782648551348	-2.216069050138602	-1.1477356704976518	0.1937575955322106
they	-1.7837365887404841	-1.0388520747525056	0.40553623741109224	0.18836653665462036	-1.4543063364255127	1.5192045157998164	0.5708235887371337	1.3457450878727009	-0.45754595983930657	-0.46515634292757885	1.3164259803435057	-0.031031428247738302	-1.2379995592786484	0.2028004621848034	-0.1384574050037817
what	-1.191547326848863	0.4814408840280652	0.159218814659274	-0.48194639003205986	-1.3539297476607381	-1.0584200958623011	0.7369738671465529	0.6863258684404534	0.25746185464146376	-0.03141952466889762	0.9124042556720366	0.2570628572917986	-1.1323610790199825	0.25377677836034895	0.23311820353024115
makes	-0.8258261618722359	-0.3529776158906478	-1.0268063255010496	0.14122436366407515	-1.1911318198080456	-0.3653309102276285	1.7898957255799945	-0.47042948817456726	-0.03869092263506552	0.7382990736659358	0.48275838989471886	-0.6369186786205989	-0.8837433171398255	-0.20645880430288535	0.8304976236067521
worth	0.13084574572762453	-0.15118333097978442	-0.018629281158221267	-2.1329707951673242	-0.3419584792217435	-0.6975751949790739	1.0652744104394736	0.9963378492396904	-0.27420072506910576	-0.6372603939744572	1.2491976398897873	0.1932418112538713	-0.43525707131711094	1.4816006286569352	2.090064818082889
trip	0.8294025294001838	-1.0131048140689158	-0.740375403903268	-0.7558049531207377	-0.07582811394563599	0.2763287914121608	1.059370206735217	-0.07340029183303842	0.198628272273912	0.09520851166833416	1.3075252514896543	0.8422595605894254	-0.2448802974388372	1.8892051233239748	2.265391837035109
theatre	-0.10713384572553375	-0.29398627276922007	-1.503577322532862	0.008782388871415914	-1.0631421848901588	1.788736619472769	0.2953101518317165	0.05629751731690469	-0.5656302470962029	1.0513417977775577	0.46781375731549657	0.6887424951260196	-0.36293494831933637	-0.23611330622801913	1.1324219953190173
-lrb-	0.06524876366307329	1.075490721459469	-1.252174257164889	-1.7356703722920883	-1.5231597997604003	0.06342269804273182	-0.7715914524812503	-0.23931685076030434	-0.7383407811613849	-0.17757697270215678	-0.25633163502004286	-0.039941816087465665	-1.8680838260038537	-1.2679869727392563	0.8888745991584395
-rrb-	0.3345770758357923	0.6414600940476051	-1.8094801971072063	-1.606677365528454	-0.6985771704528672	-0.2632157089757746	-0.15672223489860582	1.038675411564886	-1.1414333703435264	0.6816604267626454	-0.6501396646933411	-0.6520847786771563	-1.6519469901542478	-1.032964592976427	0.7144761736000818
idea	-0.8177895333569054	0.4450167789518856	-0.049643291140625156	-0.384000709801281	-0.2771431669563481	0.3946900477225205	0.7891685529210783	-0.32197458971765025	-0.9310798039184063	0.7004536617550403	0.6582572169541048	0.3524398709752427	-0.8652904535058423	0.07032268042838391	0.7264375453460759
making	-0.37488744645320904	-0.5414677051709424	-1.0995702691450946	-0.878580874362931	0.583024860444305	0.22380670104359202	0.4620863276178589	-0.783462143737216	-0.4004581243062755	-0.09775763255832116	0.32511829218883825	0.7995089876929522	-0.7702990590651644	0.15203793609727811	0.983173276099826
kahlo	-0.3318378416382185	-1.9139026016516305	-0.07769758859369391	-0.9309280267799956	-1.072060638431231	-0.9474591519969953	0.045241269744473206	-0.6583953344904226	-0.02561110070418038	-0.1603770397979715	1.1995075397283979	0.12715203805471909	-1.2221834941221452	0.4601241216601968	1.4167565699695417
art	-0.4546204916178613	-0.5718768636330978	-0.9747929647049193	0.26401152333676153	0.8089699126276321	0.2824416264288373	0.2536551136121221	-0.580230247836221	-0.5838235229885561	-0.34064163957122384	-0.13376254567125012	-0.37949967845996085	-0.8934805957616954	0.5889460958958573	0.6732783975687511
living	-0.2812024217833324	-0.37355378488525104	-1.5602792072480738	-1.3741456133769265	0.9003908908763142	1.1229671470844875	-0.37251425046767733	-0.329639563545136	-0.5841789058235948	1.1196055068863262	0.923617149788882	1.4992690153824881	-0.2588967099025954	0.7712210733578235	0.969263568324911
movie	-0.2607772351595221	-0.43841443865456603	-0.17923345003672542	0.021287898816466734	-0.06090727624742065	0.15200304780064314	0.015232237740327836	0.07115732385292473	0.2156547984922762	0.08318734577672343	0.7948187187886884	-0.05739116618219062	-0.6330885172215164	0.7900678802986559	0.7850515880122867
often	-0.47774236811010196	-0.16060525877640686	-0.01941111717865751	-0.9155733732721465	0.2085990747741614	-0.2725273942454159	-0.7071261545287165	-0.7492565248262814	-2.083926100245527	-1.3604035748328143	1.3652399285586816	-0.07139715676247244	0.5904371783003247	-0.19314747266881416	-1.3611035786511572
artist	-0.6348094409978033	1.5244371323428065	0.5763503100345584	-0.6085171692855558	0.8001112959439425	1.1016592579284645	-0.543057811006148	-2.3537547815029907	-1.2277092960132934	-0.4652507320270729	0.0834447227977384	-0.3830262319383924	-1.5184876897423425	-0.1616343049378106	0.8268402989699715
into	0.8577625329473921	-0.9415931383765441	-1.2270473991296627	0.7531007961214182	0.78587136784976	0.182194849857232	-0.2827704132176973	-0.38391640412811895	-0.770207897879111	0.4990323538146889	0.10066387658660325	1.2558039710799576	0.5591366753954655	0.7471757444027047	0.6209000717594836
own	-0.42820526609100884	-0.40108455202293347	-3.0747657627209533	-0.4328018988985861	2.425238506376692	-0.7611406217859907	2.386533684676373	0.4122662952610987	-0.10384702865566675	0.3627427963876244	-1.393873422904312	1.822172149997329	0.8739317822764519	-0.42636411803501373	-0.8507985706943866
work	-0.7028235674797917	-0.9580568114274164	0.160888392495252	-0.4755663077443338	0.012484889768219931	0.5034397770571308	0.007703088044325956	-0.582672954570586	-0.010239651391369564	-0.49431125467031045	0.23142384942926475	-0.08408576550667907	-1.2449400910593476	-0.42906860919972467	0.2811533128652417
n't	-0.8767349800618179	-0.31865861474738577	0.7632596852476069	0.4321337020630402	-1.2887548023155775	0.3523872122556744	0.4437353809416093	0.5732626836910093	1.0239734523966766	-0.1404852311295	2.1358563266483634	0.29634121661935114	0.4347535342186263	-0.6948876877202363	1.0454917268064086
done	-0.5819938468001142	-1.038202391606268	0.3465570452320741	-0.4786222614118606	-1.7333793889300975	-0.4059992828429023	-1.280047675265615	-1.1766235541740877	0.3396689697882023	0.20328630227178915	0.9112223873161035	0.5860723015200336	-0.3684766139351192	-0.4404550364860632	0.06505174473123321
before	-1.602350405987802	-1.0864120225655889	-1.6069536085945937	0.021707242011800854	-1.1618002620303476	-0.11382893002945454	0.5841131410861828	0.4088148616729962	0.7962946851175936	0.47989773878100805	-0.2712436176877988	0.5777486924765	-0.8316148020361422	0.7965101319722616	1.2132851732622378
never	-1.423729570579177	-0.42140436257519365	-0.35293264753131826	0.9320499598586998	-1.0164891703562926	-0.9220668087107795	0.5739995668049986	-0.5503459145502292	0.22235222293128754	1.3037974667652996	1.345469059808229	0.2640143809886072	-0.4965022799021994	-0.6382798036909205	0.5995507219522844
vividly	-0.9512438656218554	-1.5361983242332595	-1.3310149714271735	1.5917425809756158	0.10556996074569117	1.0636610178231949	0.10438607304909814	-0.39282681402044983	-0.5682109732104258	0.16981471790624308	0.7682649060736428	-0.49460296039339446	-1.0692744568998125	0.19819583484439995	-0.5412061333900673
much	0.14942820425062192	0.6506032065269041	0.03754198441262968	-0.30483728047622244	-0.2568763060822422	0.8039193844409546	-0.3225713718293962	0.4227751127179244	-0.43656851892787163	0.4983039336506929	0.8520017749414499	1.939518118269127	0.8425110713554909	0.22691447567825662	0.020560087137016625
passion	0.9159696558135718	0.46889688823882436	-0.8770879368302631	-0.6305510800686825	2.2065521063642732	1.9463028978100692	0.5401533639403083	-0.5940419028899336	-1.1393098053922937	-0.9703481832226526	0.7294594783233845	0.11494087408389528	0.13036512233327457	-0.697091415187534	0.8734930119468308
take	0.016600619845394127	0.45365297725164305	-1.048700460154227	0.03591333969106553	-0.6432423362718757	0.5735554745474669	0.8335837292277425	0.17333129754210141	-1.139716253104905	0.3587430217621976	1.0574917790379894	0.9044561955260026	0.47166353451993615	0.19784066174621956	0.2795669970991371
care	-0.6368853550657884	0.4153793712860292	0.12857237561854107	1.262524221281517	0.17012871190829154	0.6016275512124063	0.8457426710959433	-0.7203712344262647	0.6601137163549873	-0.24155822658625545	2.699469041485807	0.02534683600076232	0.5735743803839065	0.4433106447797982	1.4853503051524057
my	-0.01119679786448638	1.3183608817014	-2.3266096397242935	0.47927261991099623	-0.34716178362192457	0.2247081041146033	0.4465729585663344	1.3070753352081992	1.7393854386209564	-0.07224167667564571	1.5752127383386807	0.29314318083247565	0.7788109008096453	-0.6329782933556842	0.714932159145331
cat	-0.8036133859731158	0.44850387128115765	-2.1927388278590163	-0.6323405610942977	0.355547188507379	1.5562636692220977	0.5697499419281548	0.26108794444689054	1.5032037817034043	-0.2700241700048783	0.6762489295552028	0.14414283925785498	-0.5486731603443008	-0.5984076277333606	1.7382553617247183
honestly	-0.553377585576971	-0.5317404850717349	0.44052214530258504	0.5958803496236348	-1.9990337065354582	-0.24645181738244337	0.6246978680482351	-0.9721752653455309	-0.9614778631658201	0.6555638299575886	1.5853014377208439	-0.6252654150309547	-1.0040894369093063	-0.044062928294254955	-0.13520707144193655
nice	-0.27834679093396797	-0.12930188464260584	-0.3839353745250884	-0.9517491742296054	-1.0102203740186975	-0.7617429777050335	-0.6429344484848978	-0.20094746869286761	-0.22980560960655827	0.23288850079539847	1.0099072117736296	1.4631796668254913	-0.6066629878396306	0.1511489012621056	0.9146212293062279
little	0.9071768224207126	0.0740200879091848	-0.28568365385594086	0.5789741880256197	0.7475545878040402	-0.6353406284829285	-1.6998365438562804	-0.5585970851238699	-0.4713470843032107	0.06788224095174637	2.34299807821068	0.39569817463907947	-0.5252247166069859	1.0277133907763045	-0.159924286946452
us	-0.5713568371442364	0.80314052900616	0.3261020161683821	-0.9428100539589004	-0.9069004663530356	0.6526244158628993	1.5474456361073183	-0.4403807582373468	0.5985217027466356	0.8063085692099081	0.48229579909719544	1.0916278701574675	-1.3677713558938784	-0.2587066545013572	-0.050545481265307
examination	1.4319374703289118	0.5105235439814332	-1.8490510493573542	-1.2339665748473514	2.6009885760760447	1.3193377851992456	-0.14214663743148984	-2.4815032895584155	-2.2814507753889806	-0.7321121373230696	0.1149579211179268	-0.43953901557803554	-1.1820504246921402	0.33664465216975403	0.3481945573089914
young	0.273432915282038	-0.06489947657914502	-0.2670704560530027	0.03221357618629983	0.9343988184355603	1.283286686919709	0.2702419425278438	0.20914829148667635	-0.2836754065385583	-1.4827551492375826	0.6704131557667851	1.2658982405505554	-0.5106482553240688	-0.6546606482184704	2.1931655293514907
adult	0.10017936633609759	-1.2018199367177258	-0.05891151642339443	-0.8974200766202158	0.6854077750683859	2.224689378947007	0.1076710039149627	-1.148943080476208	-1.3423299282098649	0.1831508887761097	0.4225464454465868	0.4179308369863206	0.24463193663806812	-0.38653315055216747	0.09762927454167458
life	0.3974463311670652	0.6085948223509567	-0.43381184805913287	-0.10451622568518376	-0.05813047729959192	0.06162914788320625	0.1822351364859357	-0.6781464744071798	-0.933089049326771	-0.9109163006764041	-0.06646327562377818	0.3600588211346478	-0.4508583444220631	-0.4707758274910685	0.6776443295581573
urban	1.0377939164418124	0.640948967488164	-1.8727819993584949	0.15522122617934936	2.577800298391825	1.5482975740110416	0.7086219544469842	-0.4521985385504536	-0.12873960391867684	0.21798653699491452	1.0744703382451262	-0.1872042969292053	0.2465861301114397	1.0912339612909707	0.7317129790750547
south	-0.5954082496385685	1.0808683163692256	-1.7324078702920012	-0.7667430238050912	0.33932700629518797	2.227398833738945	1.5640899448733219	0.03963179693617863	-0.025090120535146754	-0.6983713062991763	0.2758460340672886	-0.6925248281852987	-0.19013407750504188	0.06146625774182139	1.1777310200641589
korea	-0.5557579144450686	-0.3643356459775481	-2.614668365171545	-1.4711342807720862	0.6638553727929937	2.0063422837462648	1.0901328794116336	0.6744594636527415	-0.17812921911389412	-0.4919303538777842	0.4094774577689939	-1.0862580727817375	-0.22005359134793157	0.4661216369241507	0.9492255629756953
through	-0.5496585145719558	-1.1702749612803225	-0.9482525732974878	-0.25659300870993595	0.0585307068412827	-0.022295661862173244	1.2466417819910844	-0.7596538803405954	-0.1608435912205295	0.6430254084553713	-0.1967030869952181	-0.14689902510725583	-0.11955735478305243	1.1083847337610182	1.010099815753228
minds	0.33702484491421014	-0.23051618018045555	-0.7645568191229298	0.4864591971512729	1.2575208195290062	2.2903597254663897	2.1827731038374467	-1.2469232350723458	-0.5103425515162002	-0.7123476041105071	0.3768522557755878	1.1646050383368174	0.11380324002247744	-0.6470116227966787	1.1701260455708085
five	-1.3154907228254917	-1.6105013210784107	-1.34876219470577	-0.23720532970833585	1.0326148203863217	1.0747817586491732	-0.5063985150458855	1.8579658591613484	-1.0589257275720656	-1.2017799224886903	1.1469031970244703	1.549568306436713	-1.0986905228026158	0.7772184548579919	-0.0197141186867682
life-affirming	0.2548491208641497	-0.5888689874367603	-1.5974519461106262	-0.40952170349914446	0.9276197050770411	-0.7995362691209392	0.5839843655655316	-1.0671458361752464	-0.8114661116441817	-0.6059147306541732	1.0923890413948487	-1.8803067081615794	0.21040558809208637	-0.2838923184137324	-0.7609037811253556
its	0.1829799478216985	-0.356849723027829	-1.4799393715792037	-0.17715906805342463	0.4038571272332528	0.3643449794461158	0.5029777633703558	-0.4969726960016113	-0.16191529217281664	0.47089129191368817	0.14198856109810531	0.15556234605315536	-0.5536076609529476	0.10528145075553032	-0.9527227237285361
vulgar	0.134055391420126	-0.932435137060901	-1.0179806401855749	0.7670885249238516	0.17132218681394534	0.13331217741420276	-1.110637983440042	-0.5961958700613494	-1.0371897270184252	-1.1452859377645415	1.79410735829714	-1.5581510652871429	0.37949343127795365	-0.8836483475756829	-0.5485053907199804
mean	-0.949043057234393	0.7822973027504165	0.15668494454579296	0.2775710851279162	-1.9768411100628425	0.16889819451589588	1.2170280618547862	1.5161529042647515	-0.07807424088265813	-0.570632215549839	2.5710206290661133	-1.6258635451691774	0.11206037561945448	-1.3283264188498352	1.1649959544895374
i	-0.890246302693307	-0.21023363229516134	0.9837660060292734	1.6750730231569309	-2.6730367824574457	1.2304800936769595	0.020447961676563375	0.4736805559406965	-0.07725301116259098	1.0882973838951098	1.785291555938656	-0.4177897667845421	-0.14443346498548426	0.3178258635021678	0.5051566245252582
liked	-1.2190773195759823	0.13161851426260635	0.3168019893229903	-0.034926092216924776	-2.095058357688174	0.23126306121773932	-0.7779671120158993	-0.5708328011331405	0.726930395029762	1.5128911448586777	2.222575605834565	-0.4900866829536247	-1.7752082536554994	0.4249605281609747	1.5700645744689463
empire	-1.3662618036030336	0.2581671680777795	-2.270923289272325	1.2328630940192584	-0.6201673913083531	-0.5625479046718079	0.42036921837496494	0.6995927019671151	1.755761522598676	-0.7429011539910748	1.5961063817643275	-1.708702968755678	0.4419967628198531	-1.4390490372602092	0.7837606554455256
lacks	-0.15856302993807259	1.8105869329699407	-0.9305008357037167	0.5714706458965232	0.4867173383121588	-0.5085766239188918	-0.40449366022584315	-2.084143357586952	1.285050334321279	1.710555894761512	0.7287778443164539	-0.037482790412846856	-1.2561573246756432	-0.6620900666653069	-0.15774674790856247
depth	-0.1915722604939768	0.904318998180324	-1.8572043888437615	0.8256541300995874	1.408714752611955	0.5329340806673677	0.1867709204993876	-0.6497223013084817	-0.583379942858047	0.3067155326717042	1.0567444805865618	0.6092530654586495	-0.5270306708549466	-0.6788227621089995	0.2987156273938516
up	-0.1691973492395097	-1.979335479975819	0.15439483570052137	0.9712356929933542	0.5437810382525559	0.13672107007026224	0.9499308837162201	0.1894813963221761	0.2820810088368556	0.10270842348442495	1.0704118779204324	1.5082683273018416	0.6054954997414838	0.5116744861061069	0.3407523515067889
heart	0.02534532851836857	-0.26036187173024333	-1.601209796396626	0.10821835611464409	0.2042631038962917	0.47743584984507126	0.13796659662702698	-0.052309163803024084	-0.035735374808874676	0.5471771500969693	0.7303204018685979	0.7251691381773626	0.24242516715132723	0.6695702838745801	-0.4698828249784437
silly	-0.16341394819272387	-0.7234059894809677	-0.9272668004882879	0.7112969451535806	-0.7590015868962932	0.09565679847564146	-0.8626027422695908	1.172788883419695	-1.1298087649954196	-0.11933492142623282	2.0806963213560774	-0.48571070376973413	0.7576397445981415	0.188816003021543	-0.7655635612643773
photographed	-1.063445905100409	-0.9115028145263492	-3.61948802241375	0.3862138996438368	-0.4626091737105544	-0.1079226528293335	-0.46127818437261064	-0.18121965549246655	-2.8168643580600223	1.2880142045478333	0.6211376258015735	-1.0872071125871205	0.33507857644026623	-1.7991747806265606	-2.0454522723837294
rather	0.3680521186742803	0.9909786579804621	-1.4665948896765983	-0.3406905471977376	-0.5579428175108561	0.42650292863383416	-0.6956779875633046	0.17285397979018124	-2.234145412963591	1.6923068538265034	1.0146560201182075	0.6011984983976559	-0.6368467488035705	0.7623158831792171	-1.3151652118107224
time	-0.8534150419850383	-0.8143684219003395	-0.9283206829289891	0.361877650627689	0.6735135238758224	-0.6999598163845535	1.0106471187156552	0.11144481493192765	-0.18231093957124306	0.27291244643949303	-0.12915396283891212	0.5533311502602598	-0.7619394290290994	1.4624767288651865	0.7813847330499595
always	-0.6949272646054175	-0.914632685267052	1.0479639156586593	-1.3358237845319816	-1.4034837943124878	-0.9012622963721947	0.13071692903375376	0.1454882917825715	-0.07158188389063935	-0.6014393364669502	1.5557710948939618	-0.24739757578819066	-0.34729245416561955	-0.7874735964003922	0.6660331519899028
most	-0.21436104637708567	0.2422731993902704	0.4861814441708	-0.6762927937906773	1.1483134344843928	0.8107790371037461	0.1976953492062623	-1.9017523712749254	-0.8169261071442424	0.2715033277118449	-0.5332054754527321	-0.22235259592603535	-1.2397700380467467	-0.1723623209455879	0.09490677055836882
wilde	0.6527607567545143	0.892237511892247	-0.1426292989614496	-1.0408487922917409	1.3245746350180196	1.4010061226665207	0.47322486001470226	-1.4840448796389327	-0.7064914181761726	-0.017814042532145552	0.09139808455946064	0.7944260865265288	-1.99583286407016	-0.14470096393182919	1.8266400750811538
droll	2.7887399817763514	2.2906827970082175	-0.4978035165719458	-0.11962704244371691	2.693452796962571	0.7924386782558814	0.8679071994444674	-2.7839753993856107	-0.5896173598803012	-1.9670076192864037	0.9372204648913731	-0.9154025198773541	-1.1345296329997208	-0.7599933844980558	1.6814680464568854
whimsy	1.2242395019201493	1.582044052416475	-1.4083403686935205	0.7122129093559106	1.1239555950619144	2.3484647983651215	1.5079336664688348	-0.5602993774735003	0.5203951728567773	-1.0039116134322121	2.153576316935337	-1.9193050137664673	-0.9723887025731276	-1.1770961396375612	1.589177866528142
helps	-0.40578529823720844	2.0903909808090813	-0.5193188468231063	-0.28809029413669285	1.067475743364773	1.10317809521043	0.7610106424635794	-1.5112160182306353	0.5759913378116089	-1.4211454181272738	1.895469285345954	0.5584087257182315	-0.024329390579893362	-1.6381942228205872	1.0660304337510493
being	-0.7335450485251631	-0.2724038924670702	0.11339135792352817	-0.4776731686722778	0.7479927432915295	-0.05001482810393959	-0.863267303524831	-0.6115378539786385	0.7301433230904383	0.049893421923670245	1.5574266462661952	1.4821840663516506	-0.03566247786001833	-0.4597981945762327	-0.2330214462629615
earnest	-1.6289530412765685	0.1649743732484228	-0.514518935854259	-0.6357406833859774	0.19571490430417587	0.15060616035417534	-0.2530068750706913	-0.9294966209165785	0.41331243759439285	-0.6201659753128791	0.7993131472813686	-0.1531830091756631	-0.003279352252998524	0.1919942679456239	-0.3783530041223389
overcome	-0.5934780324497989	0.06257849054359127	-0.5809826486569408	-0.42299696241777235	0.9943749697617872	-0.2303721897519707	2.844623906562003	-1.4191257608933736	0.7835826908564782	-0.6716128535146595	1.7414010083542637	1.7887025774043215	0.5995664234770416	-0.672392954299194	1.2223458096608786
parker	-1.1866581547558508	0.08671905158387772	0.5757618787129797	-1.579597692615991	-0.9191249119378564	-0.5445048136973194	2.2249915963733944	-1.5228869711020994	-0.5977667404734437	-1.377882223743819	0.7405608898972851	-0.5945408522182247	-1.1181358182753973	-1.944689283153799	0.7378561507942603
creative	-0.17715376347609468	-0.31283860338347713	-0.7860974741893161	0.4285250281196079	0.5238751371198858	1.1967967276139908	-0.016744229842800093	-1.236779915399006	-0.8331117148590022	-0.7295679420288679	0.8673247768445236	0.6979885554192873	-0.37930413545379926	-1.204609279088269	-0.17433970934614074
...	0.5701794364483983	-0.25334796338985444	-1.491840433607985	0.8524993377707797	-0.12745251474651997	-0.32410206243381234	-0.6626178138548451	-1.2040578988009387	0.163084840437923	-0.10626920617336397	0.6729057534221277	-0.6961512495343369	-0.3102739409856576	0.08574476316261212	0.20610692501672476
lies	-0.5704014447924949	-0.488748378411366	-1.9629579330492515	2.1189444907880066	-0.17829539824199145	1.0716226931053818	1.780225090105135	-1.9565366741129222	1.8544451720121775	1.4663156426466355	-0.7059995258885009	0.270562134153133	-0.40375624913449026	0.025996569819512094	1.2206313407896154
utter	-0.37826693441466075	1.3349898910504343	-2.1223922592835187	0.6075788486895972	1.6861804769683033	1.0435121510805683	-0.19276816315704887	-1.9516109977063822	0.9826990238200951	-0.2817539800107821	0.2338368024527968	-1.0167146736705246	-0.052245498470474105	-0.5272306258798145	-0.6369099682416474
stuart	1.7711839936554725	1.0891299472721097	-2.6254045969964968	2.032583245206643	0.422175433108233	-1.033376444546165	-1.7791565051843499	-0.5278713473261485	-1.1282316990907182	0.20699750703373665	1.897403375996723	0.235096274294643	-0.7400093595421963	1.2778677562851841	1.6666087384000912
very	0.9006721414849542	-0.06836247283222383	-0.40820507351642843	-0.48759579979870055	0.883960532482216	-0.7426607668452774	-0.7679944619349364	-0.506822356203363	-1.1249950044776025	-0.5804299997049234	1.34792654788458	-0.014885759411261738	1.4657876549319633	-0.2930443025747535	0.6959712817730382
path	-0.46971560309340565	-1.3313327342260852	-0.3424673507378273	0.04234609578890171	0.5939448783269159	0.8393730703039254	1.559104344336235	-1.4578844422624095	1.3473106015957952	-1.8649859878820862	0.8195367237379747	-0.4937829705448159	0.10951811175906837	0.7423406121219842	0.6297068483981763
ice	-0.14451309771366583	-0.06136757533085052	-0.5092822779115187	0.809696831756099	0.7433583545124314	0.9709811279899198	1.8988026171327284	-1.359793180728944	0.7457589212728463	-1.954049885588974	2.77706029703365	-2.026539057485509	-0.39013530159003795	1.1709154812070244	0.4518577629209637
age	-0.6370951783789505	-0.8953975678848631	-0.047360181177709904	1.210536443529464	1.6731323533620388	1.230777526486769	2.355625371335534	-0.7791530053848583	-0.13511449407698395	-1.3947394520427783	1.7995134073110783	-2.0672340475427387	0.5001534165703891	0.21778054614782902	0.45630428301694714
follows	-0.767094108437767	1.0902906734698745	-1.685198599519389	0.5190946314405074	0.3991603675863317	-0.7010214186054924	0.4689515737871525	-1.706571105505484	0.04238211009222742	-1.0714172191597653	0.003673874701250357	-1.361440154352541	-2.380282667304905	-0.13573732508018635	0.3205540171053231
closely	-0.5253849098772159	1.239001191783536	0.7286838421750058	0.0780915390859134	0.519198864032745	-0.40965855075738544	-1.3852305796276807	-1.383603754499361	-1.6409577454345614	-0.09771922117748727	2.485110699977676	-0.2980270771866611	-2.7747504704778265	1.7208925952359517	-1.1389473384623252
though	-1.0194517242592251	-0.981454892036282	-0.33820385826247634	0.07277203093038007	-1.1967734442769289	-0.4456195048180563	-0.8547244238424607	-0.40387671013240106	-1.2754723926217109	-0.26087294764644026	1.296900244936169	-1.1727643831165069	0.06996109865201383	-0.46930717288404256	-0.4135847192071036
giant	0.4889937156726353	-0.6489588980666717	-2.1033407555112023	-0.49898730768148497	1.1688684219643808	1.1908836205903843	-0.42338478507920474	-0.5802285686320445	0.28461111212260864	0.0314348411611703	0.11533697265492782	1.3270480320991678	-0.04756793549235269	-0.21613051157288318	1.1064352388213166
jones	-1.5285461507625093	0.9681929712687556	-1.5420436499939247	-0.4115509026292411	-0.3154581402548302	0.8597645051918812	-0.042112083040831916	-1.2546151333078561	-0.6875253827506709	0.046521349478086726	1.2393803613400909	0.06483533243098322	-0.8212298897171965	-4.170516272826151	0.30416995954172565
who	-1.5372266167006823	1.219643848585552	0.524467602194597	-0.06631750149295891	-1.8625135714189822	1.9235381514725132	0.541507984217189	-0.22340875823638134	0.16683543030989761	0.5463332367258842	0.8999457262869393	1.36649538118031	-0.42053968424515065	-1.7376652701235988	0.6560344755629979
matter	0.030966272845362353	2.448748481825425	-0.22887714915202118	-0.23885557719072542	1.0445188444833864	-0.7893969719231417	0.6700467132505035	-1.2074897720509166	0.7722432401159158	-0.5193707952504685	1.161782513795298	-0.15591020290484753	-1.2077725746845918	1.0015812436129414	-0.4102524619478594
weeks	-0.9755812272404145	0.9085930425379646	-2.6716919338407337	1.4477868981066258	1.1185922876327692	0.8560955841435904	-0.36741953743719435	1.5464903770363139	-0.22511849508089865	-1.0863637223593638	0.7400333078541435	0.8661669777530213	-0.5657313528992908	1.4300468667851458	0.25657266297257136
release	0.6483260286702903	-0.16375052956150193	-1.4262478511207983	-1.7350011219789208	0.19376954320338202	1.0130085683054095	1.4409889492556887	1.3247485026776928	-0.7873072206911615	0.7754528036179886	-0.05713513266642889	0.010667372809218506	-0.1606669652826218	1.4751493892617038	1.2720043018261695
humor	0.008667296509041966	-0.2305627784344111	-1.5283349802469115	0.9457540230417676	0.94591985443562	0.2724141436125765	0.6459646081050332	-1.3094744042159785	-0.44708788585752784	-0.5746541585011502	0.3583504517575933	-0.40084180881271697	0.39717430205442544	-0.8483018563125442	-0.0015009591608217132
speak	-0.3654236990571914	0.20282494563739276	-0.7752299657005899	0.4651552404740287	-0.21881785461633052	0.8734025570628625	1.3952113694231012	-0.11505450528734218	-0.11312378074932461	0.4638455516224815	1.1429908535755677	2.4441010038984334	0.02502704606698833	-1.2389854493141619	0.6057845797181425
after	-1.1306371266865112	-1.3849470597008775	-0.5627591700019489	-1.050004494937597	0.35161489060292284	0.978603578030033	-0.13898475041622743	0.963907569765347	-1.2102781586837368	-1.4224245319665612	-0.11316123234524333	0.36606889132311815	-1.1957614431445702	1.2940526447255978	0.2651570992143093
witty	-0.36492973792961236	-0.4086045430592583	-1.3046362208757272	-0.31168515497650384	-0.22776868736797096	-0.2384992947503381	-0.7170386725139394	-1.374852914803384	-2.4104551335942204	-0.6506109602276362	0.07552599018070394	-0.4506433446251129	-0.5903319645709753	-0.7608659288547409	-2.0196329707875096
silver	-0.6634960427399249	-1.687451277536851	-3.827121135673621	-1.130878644900589	0.6740209851406984	-0.05441697912189292	1.6212423483272675	-0.2582783119313372	1.6603108003768723	0.5822462025669966	-1.2366113853842253	0.520457420292151	0.18331216108605497	-1.6802071629750939	1.0474079741386966
replaced	-1.424306554235974	-1.7634419303210744	-1.5951083590299036	-0.2899989550457544	-0.6162751864123518	0.005787762785673056	-1.5671935806678179	-2.185155063190635	0.7624199589821398	1.5877362760329505	-0.12411690899137184	1.2339392183222744	-0.382091349785571	-1.4883173573926096	-0.05933918289929374
cute	-0.9733012313010054	-0.13451859419729015	-1.1304469330503815	0.2294620731807302	0.8724475802256249	0.050984384406751265	-1.1445872488118614	-0.4370624386151215	-0.23783905895899493	-1.3237533772483165	1.0336463045527933	0.3440327365469329	-0.6053602802001131	-0.41269030686017555	-0.9762792509989429
everyone	-0.06609053406709997	-0.37075039841128893	-0.1373372977801155	-1.0767013840206898	-0.04632323069807209	-0.12005173859085216	1.3716632252840868	0.44337787478743385	0.16542455407148315	-0.9974731781077064	1.190399405403359	1.1356375066665885	-0.9271418941689968	-0.5267030908705234	1.1711012500863087
everything	-1.6305754037030709	0.5701276991833941	0.05368635956526402	-0.14002910330503854	-0.45534409838853573	-0.16883691967024325	0.33624409188997006	0.33172197105198015	0.5847583387488691	0.35241933924063606	2.071854043408607	0.9965316067119221	-0.5559566766087464	-0.282836176591614	-0.23336510643709835
around	0.11346607708798084	-0.6099481212352007	-2.032832550560827	0.240853620778881	-0.13171342022897464	-0.7283744877163915	0.9670064745640519	0.6067395627435727	0.27004275342021034	0.44858827156553027	0.3972368318394063	0.6618723268200819	0.49068932651521135	1.3632370723300786	1.2446542587279492
there	-0.8650061775617031	0.9994094959001005	0.601525975101483	0.48598965423755347	-0.9345327943085769	-1.4118252108302236	-0.661547080207662	-0.09459439679845683	0.05626060928887333	-0.49589554649598255	1.9432108950984575	-0.03866580956947491	-1.383207774821487	-0.018764168942622783	0.2898878399076059
comes	-1.2718919483830848	-1.0506489146157223	-0.07047312364456937	0.28784286960555217	-0.08887172907822989	-0.21403263146417895	1.0609549896359984	-1.151609651461226	0.8447513298068612	-0.30800752099948836	-0.23150909619400084	1.8197458189758593	-1.4337124282346214	1.483844258028468	-0.47341241399887346
from	0.17917960765731827	-1.083391779938239	-1.4870912601492126	-0.45220408774331405	0.33912363246989036	-0.1821141356860757	0.8162654233728255	0.22005679046731708	-0.46417014311261795	0.1354760009984009	-1.2174010024694946	1.2185096252601815	-0.17518734199300823	-0.775010032762111	0.26460745249029427
performances	-0.08951123247372794	-1.1007874046244597	-0.2666685153998198	-0.6695585275602133	0.25402756176627983	0.9452396067869309	-0.47295283639874885	-1.8307153588834533	-0.6971120995873704	-0.22931021100630503	-0.6612899785761408	0.5194435465569902	-0.15501027172262438	-1.0820916500225464	-0.7722606597598283
lead	-0.5554737574888119	-1.2426286276949383	-0.25795907871625423	-1.4428173962950543	0.5310800734662999	0.849070015371376	0.18384952518961722	-1.9681788076685995	-1.3053312677884403	0.08736434345487776	0.42740753754809524	1.825541515168995	-0.1482691916529315	-1.8142329926488505	0.17649582825838328
13	-1.6751977867037586	0.18970653508781687	-1.4597853467037307	0.34853186205327474	-1.1922366434207832	0.8320148600473994	-0.6749604367564518	1.7723070671391603	1.1985513365638663	-0.537009582914069	1.509880662382462	0.5995813699924322	-2.442324633323814	1.3868932449904954	2.7068945836182623
conversations	-0.590695547847411	1.0732421146491056	-0.6272798666025691	0.890089621849992	0.23962341315050312	1.4669216861170078	-0.7815004984744462	0.972188177061687	0.7888568383689145	-1.4016960634016304	1.241691668294784	0.246834848402834	-2.398836236293246	0.5177869894859795	2.675826888108525
holds	-0.4746321137350899	-0.3616899912785167	-0.41224717637061603	1.2434968137872087	0.10584368342424055	0.35593690962712454	1.0084875984487347	-0.5424047645257176	0.0025160857717148044	-0.30540636467895543	0.9697746457690375	0.192585656069991	-0.35335700949040993	0.04507289657910085	0.6027211293067067
close	-1.7906946888871471	-0.4725540373371787	0.2002405795924742	-0.2875925795786335	0.18812667966181906	-0.8801955919450135	0.426421726726277	0.03667703111252607	1.6995298497860634	-0.14471824907079855	1.484871337273093	2.421207021943112	0.8394899862141048	-0.21098370746519451	0.06069158744171255
relatively	0.6312794831161602	0.8939231182783396	-1.8227358066499026	-0.42712681352511245	0.39044594042742153	-2.3778319196009194	-0.42086102424738975	-1.5037958965829128	0.4420239944259455	0.34132130692039797	1.9745743263027367	1.133985914232619	-0.7850013372700223	1.341488339955472	-0.9874218304046598
slow	-0.3080392585535644	-1.026425065444912	-0.9831853308358418	0.1628808238163153	0.20105427396613024	-0.5099058481321325	0.1915785377944614	-0.2230334233137224	-1.5445609359418975	-0.10968339365347377	1.748385209759172	0.40935532138222835	0.2892088247860881	1.0998779892354753	-1.047264187320402
come	-1.0692391727468007	-1.4303346566377082	0.5931290354225787	0.0802323581106327	-0.4629539648019735	1.2296083785700131	0.8027472686039425	0.30173105142057255	0.8243682004277529	0.783919677797122	1.4892684351522907	1.891712306268387	0.7846985600109704	-0.27183090469753707	0.21944506667617558
point	-0.25506819347343446	1.253418737376529	-0.864811102601648	0.7621785715561213	1.2680248292777496	-0.41755043245795975	0.8362137308111026	-0.5693574755396726	1.4161781477424469	-0.17388854932791897	0.28410820612065835	0.4260632331368509	-1.0803810648572334	1.3093913572606484	1.1752774477029861
auto	-1.9138960303855415	-0.9313034739429629	-3.58876531620487	0.5808530948728865	0.11221761454187346	-3.472223173979862	-1.0363222354262676	2.2144817932761	0.09039079810596529	-0.5371472248616703	2.1892231661315504	1.0938330922257102	-1.0844987238048327	0.8327516701126958	-0.7159289550316067
focus	-1.1606856238395835	0.18690091070863157	-2.089105933974176	0.19298942370321537	0.5094120877114443	-2.210340484315256	0.0024911683929810524	-0.007712939588623402	0.036127566597405125	-0.3058357454806813	1.030249924640801	1.553338366834923	-1.2701749781258904	0.7319358239676756	-0.0755501229695286
works	-0.3478765511529087	-0.8678678139940588	-1.0079698360525868	-0.2447240262458778	-0.01978326959820642	0.03300281419797979	-0.3822787135663152	-1.0079856604764068	-0.04070451254334236	0.020629282146119254	-0.1002564498792411	0.45231044132761045	-1.512824832575772	0.5704433862395079	0.0991138720430732
unusual	-0.8606764841276027	1.034238599160322	-0.23024774829099592	-1.5193144762607318	-0.2834668474511838	-0.006258392481956809	1.1427955584706835	-0.9128532779368338	-1.8723170980485033	0.5905559831958225	0.9680213443431657	-1.5217496464568745	-1.2828227784242239	0.45492650941247087	-0.14760744402043197
biopic	0.8908107079927325	0.2574642064346271	-1.458850861306615	-1.2118081327473738	-0.5603399113585739	1.051939144066553	-0.26621353702519196	0.20048169502673874	-2.4807702853598035	1.2042582661163053	1.5025265526020155	-0.6140955736726307	0.3027305755321063	-0.3966903447511979	0.3950360954609806
document	0.9021142955566306	-0.24711654549253936	0.12248193968853738	-0.8710531869278683	1.1779095383416447	0.4483469005709304	0.2686493444326461	-1.979781091858917	-0.968260908967054	0.8396420151294628	0.46372912755391016	1.7786577280781444	-0.5054606876428951	0.6370218575685727	0.08369230512429726
male	0.04397001300145864	-1.8841874519955863	0.07095347894378756	-0.8056058425304785	1.9673300926439623	1.5979432656380994	0.6003796078601086	-1.5832222894099754	-1.21604328170271	0.4146325613444368	-0.8835107173898401	-0.540595380193658	-1.2179013640917842	-0.8712071028167345	1.0396041086597683
era	0.7612562158825498	-0.2672606913697597	-1.1532307659724148	-0.003911663358610762	0.7679629180176073	0.9046358665278796	0.9548858951446307	-1.3845649209948112	-0.3415224870857807	0.8429972012633753	-0.8764712849505981	-0.406582761995893	0.17769663685021486	0.7361146517711419	0.775816765531818
mr.	-1.5806461201730015	-0.4076971155730453	-1.8005119037742943	-2.449586868388729	0.006704167098159297	-1.5724258091053902	-0.1837362698361393	-0.2140329376236506	0.3144033440368401	-1.4919490002362998	-0.25431864873418	-0.31394342059798963	-2.1898114680370036	-1.0790939229186258	0.12339508386954312
zhang	-2.7899841483264667	0.2130893960297593	-0.24787162897511816	-3.1797221175194226	0.02639511435956393	-1.5730641580911473	0.6069194254868946	-0.660245604756712	-0.4308108927397841	-1.0988155743617312	0.3948386587650712	0.6090286470767372	-3.287563868756285	-1.1472980638886232	0.7759040452288903
subject	-0.17123992696212076	0.726020092770362	-1.1571177118051315	0.41298265203629025	1.0421382818718947	-0.04659215553943413	0.9529179863445472	-1.7955486825550633	-0.09250520960428454	-1.2635436884686095	0.677896977386554	0.23339306901202708	-0.6028979227185975	0.35300161498119603	-1.035071302703806
degree	1.427796411720376	0.5882932661745433	-1.0497980828299411	-0.316181469607153	0.8455971631343655	1.1853316225426096	-0.11430885428105886	-2.498761345877288	0.5503101370985631	0.5904220304983863	1.0914906781668736	1.232922773534042	-0.1948752257494255	0.12755447930660124	-0.0025874056785276656
least	-0.6231291584465174	-0.983904985076057	-1.6059778881715996	-1.681117824837151	1.184373190784073	-0.7521105760212579	0.4976890513671815	0.6512307507799355	0.13500046584083583	-1.1651566299888896	1.410730481953639	0.3831558099138024	-1.4053014237894383	1.4997234826402983	-1.2583847963556407
